{"episode Highspeed": 82.18954076032041, "train/clip_range": 0.20000000298023224, "Checkpoint reached": 165, "parameters/mlp_extractor.value_net.0.bias": {"_type": "histogram", "values": [1.0, 0.0, 0.0, 0.0, 0.0, 0.0, 0.0, 0.0, 0.0, 0.0, 0.0, 0.0, 0.0, 0.0, 0.0, 0.0, 0.0, 0.0, 1.0, 0.0, 1.0, 0.0, 1.0, 2.0, 1.0, 2.0, 2.0, 5.0, 1.0, 4.0, 3.0, 1.0, 3.0, 2.0, 0.0, 0.0, 0.0, 0.0, 0.0, 0.0, 0.0, 0.0, 1.0, 1.0, 1.0, 0.0, 0.0, 1.0, 1.0, 2.0, 0.0, 6.0, 1.0, 3.0, 3.0, 3.0, 1.0, 3.0, 1.0, 0.0, 1.0, 1.0, 1.0, 3.0], "bins": [-0.007795099169015884, -0.0076084500178694725, -0.007421801332384348, -0.007235152181237936, -0.007048503030091524, -0.006861853878945112, -0.006675205193459988, -0.006488556042313576, -0.006301906891167164, -0.006115257740020752, -0.005928609054535627, -0.0057419599033892155, -0.005555310752242804, -0.005368661601096392, -0.005182012915611267, -0.004995363764464855, -0.004808714613318443, -0.004622065462172031, -0.004435416776686907, -0.004248767625540495, -0.004062118474394083, -0.0038754695560783148, -0.0036888206377625465, -0.0035021714866161346, -0.00331552280113101, -0.003128873882815242, -0.00294222473166883, -0.0027555758133530617, -0.0025689266622066498, -0.0023822777438908815, -0.0021956288255751133, -0.0020089796744287014, -0.0018223305232822895, -0.0016356814885511994, -0.0014490324538201094, -0.0012623835355043411, -0.0010757343843579292, -0.0008890854078345001, -0.0007024364313110709, -0.0005157873965799809, -0.00032913824543356895, -0.00014248922525439411, 4.4159794924780726e-05, 0.00023080880055204034, 0.0004174578352831304, 0.0006041068700142205, 0.0007907558465376496, 0.0009774048812687397, 0.001164053799584508, 0.001350702834315598, 0.001537351869046688, 0.0017240007873624563, 0.0019106499385088682, 0.0020972988568246365, 0.0022839480079710484, 0.0024705969262868166, 0.002657245844602585, 0.002843894762918353, 0.003030543914064765, 0.0032171928323805332, 0.003403841983526945, 0.0035904909018427134, 0.0037771398201584816, 0.0039637889713048935, 0.004150438122451305]}, "parameters/mlp_extractor.policy_net.2.weight": {"_type": "histogram", "values": [1.0, 1.0, 1.0, 0.0, 4.0, 2.0, 8.0, 14.0, 9.0, 10.0, 20.0, 15.0, 23.0, 21.0, 45.0, 38.0, 50.0, 72.0, 76.0, 70.0, 90.0, 112.0, 129.0, 134.0, 133.0, 130.0, 148.0, 157.0, 144.0, 179.0, 180.0, 186.0, 176.0, 150.0, 138.0, 152.0, 161.0, 141.0, 117.0, 119.0, 111.0, 88.0, 90.0, 70.0, 70.0, 66.0, 43.0, 37.0, 30.0, 31.0, 27.0, 16.0, 13.0, 13.0, 11.0, 6.0, 7.0, 2.0, 4.0, 1.0, 0.0, 3.0, 0.0, 1.0], "bins": [-0.5778589248657227, -0.5592526793479919, -0.540646493434906, -0.5220402479171753, -0.5034340023994446, -0.48482781648635864, -0.46622157096862793, -0.4476153552532196, -0.4290091395378113, -0.41040292382240295, -0.39179667830467224, -0.3731904625892639, -0.3545842468738556, -0.33597803115844727, -0.31737178564071655, -0.2987655699253082, -0.2801593244075775, -0.2615531086921692, -0.24294687807559967, -0.22434064745903015, -0.20573443174362183, -0.1871282011270523, -0.1685219705104828, -0.14991575479507446, -0.13130950927734375, -0.11270328611135483, -0.0940970629453659, -0.07549083232879639, -0.056884609162807465, -0.03827838599681854, -0.019672155380249023, -0.0010659396648406982, 0.017540276050567627, 0.03614649921655655, 0.05475272610783577, 0.07335895299911499, 0.09196517616510391, 0.11057139933109283, 0.12917762994766235, 0.14778384566307068, 0.166390061378479, 0.18499629199504852, 0.20360250771045685, 0.22220873832702637, 0.2408149540424347, 0.259421169757843, 0.27802741527557373, 0.29663363099098206, 0.31523987650871277, 0.3338460922241211, 0.3524523377418518, 0.37105855345726013, 0.38966476917266846, 0.40827101469039917, 0.4268772304058075, 0.4454834461212158, 0.46408969163894653, 0.48269590735435486, 0.5013021230697632, 0.5199083685874939, 0.5385146141052246, 0.5571208000183105, 0.5757270455360413, 0.594333291053772, 0.6129394769668579]}, "global_step": 52881, "parameters/mlp_extractor.value_net.0.weight": {"_type": "histogram", "values": [1.0, 1.0, 0.0, 4.0, 2.0, 5.0, 11.0, 6.0, 15.0, 18.0, 39.0, 47.0, 46.0, 62.0, 104.0, 113.0, 135.0, 185.0, 234.0, 245.0, 316.0, 335.0, 398.0, 461.0, 534.0, 591.0, 619.0, 606.0, 699.0, 695.0, 771.0, 703.0, 722.0, 778.0, 742.0, 688.0, 644.0, 611.0, 606.0, 582.0, 486.0, 414.0, 380.0, 329.0, 240.0, 235.0, 200.0, 163.0, 126.0, 107.0, 75.0, 57.0, 53.0, 43.0, 25.0, 26.0, 16.0, 12.0, 13.0, 5.0, 0.0, 2.0, 2.0, 1.0], "bins": [-0.3306592106819153, -0.32041099667549133, -0.3101627826690674, -0.29991453886032104, -0.2896663248538971, -0.27941811084747314, -0.2691698968410492, -0.25892168283462524, -0.2486734539270401, -0.23842523992061615, -0.228177011013031, -0.21792879700660706, -0.2076805830001831, -0.19743235409259796, -0.187184140086174, -0.17693591117858887, -0.16668769717216492, -0.15643948316574097, -0.14619125425815582, -0.13594304025173187, -0.12569481134414673, -0.11544659733772278, -0.10519838333129883, -0.09495016187429428, -0.08470194041728973, -0.07445371896028519, -0.06420549750328064, -0.05395728349685669, -0.04370906203985214, -0.033460840582847595, -0.023212622851133347, -0.012964405119419098, -0.0027161836624145508, 0.007532035931944847, 0.017780255526304245, 0.028028475120663643, 0.03827669471502304, 0.04852491617202759, 0.05877313390374184, 0.06902135163545609, 0.07926957309246063, 0.08951779454946518, 0.09976601600646973, 0.11001423001289368, 0.12026245146989822, 0.13051067292690277, 0.14075888693332672, 0.15100711584091187, 0.16125532984733582, 0.17150354385375977, 0.1817517727613449, 0.19199998676776886, 0.202248215675354, 0.21249642968177795, 0.2227446436882019, 0.23299285769462585, 0.243241086602211, 0.25348931550979614, 0.2637375295162201, 0.27398574352264404, 0.284233957529068, 0.29448217153549194, 0.3047304153442383, 0.31497862935066223, 0.3252268433570862]}, "Episode reward": -259.4, "rollout/ep_len_mean": 99.73999786376953, "parameters/features_extractor.network.4.weight": {"_type": "histogram", "values": [1.0, 1.0, 1.0, 0.0, 4.0, 5.0, 7.0, 11.0, 28.0, 27.0, 37.0, 52.0, 71.0, 109.0, 169.0, 206.0, 278.0, 316.0, 428.0, 538.0, 638.0, 824.0, 933.0, 1087.0, 1273.0, 1392.0, 1599.0, 1788.0, 1760.0, 1831.0, 1969.0, 1932.0, 1975.0, 1890.0, 1845.0, 1724.0, 1614.0, 1407.0, 1288.0, 1091.0, 996.0, 821.0, 615.0, 542.0, 413.0, 354.0, 276.0, 211.0, 149.0, 105.0, 70.0, 67.0, 38.0, 18.0, 9.0, 11.0, 7.0, 2.0, 5.0, 4.0, 1.0, 0.0, 0.0, 1.0], "bins": [-0.2483094185590744, -0.24042129516601562, -0.23253315687179565, -0.22464503347873688, -0.2167569100856781, -0.20886877179145813, -0.20098064839839935, -0.19309252500534058, -0.1852043867111206, -0.17731626331806183, -0.16942812502384186, -0.16154000163078308, -0.1536518633365631, -0.14576373994350433, -0.13787561655044556, -0.12998747825622559, -0.12209935486316681, -0.11421122401952744, -0.10632309317588806, -0.09843496978282928, -0.09054683893918991, -0.08265870809555054, -0.07477058470249176, -0.06688245385885239, -0.05899432301521301, -0.05110619217157364, -0.043218065053224564, -0.03532993793487549, -0.027441807091236115, -0.01955367624759674, -0.011665549129247665, -0.00377742201089859, 0.0041107237339019775, 0.011998852714896202, 0.019886981695890427, 0.02777511067688465, 0.035663239657878876, 0.04355137050151825, 0.051439497619867325, 0.0593276247382164, 0.06721575558185577, 0.07510388642549515, 0.08299201726913452, 0.0908801406621933, 0.09876827150583267, 0.10665640234947205, 0.11454452574253082, 0.1224326565861702, 0.13032078742980957, 0.13820891082286835, 0.14609704911708832, 0.1539851725101471, 0.16187331080436707, 0.16976143419742584, 0.17764955759048462, 0.1855376958847046, 0.19342581927776337, 0.20131394267082214, 0.20920208096504211, 0.2170902043581009, 0.22497832775115967, 0.23286646604537964, 0.24075458943843842, 0.2486427128314972, 0.25653085112571716]}, "highest_speed": 98.04524062416492, "parameters/features_extractor.network.9.weight": {"_type": "histogram", "values": [1.0, 0.0, 1.0, 0.0, 0.0, 2.0, 2.0, 4.0, 12.0, 17.0, 28.0, 48.0, 79.0, 100.0, 172.0, 232.0, 393.0, 585.0, 775.0, 1105.0, 1480.0, 1929.0, 2496.0, 3212.0, 3959.0, 4816.0, 5863.0, 6814.0, 7729.0, 8595.0, 9629.0, 10176.0, 10813.0, 11260.0, 11392.0, 11334.0, 10830.0, 10322.0, 9675.0, 8915.0, 8140.0, 6854.0, 5998.0, 4954.0, 4071.0, 3418.0, 2716.0, 2054.0, 1570.0, 1128.0, 809.0, 604.0, 427.0, 289.0, 197.0, 133.0, 74.0, 48.0, 31.0, 13.0, 12.0, 9.0, 4.0, 4.0], "bins": [-0.25134336948394775, -0.2440856397151947, -0.23682789504528046, -0.2295701652765274, -0.22231243550777435, -0.2150546908378601, -0.20779696106910706, -0.200539231300354, -0.19328150153160095, -0.1860237717628479, -0.17876602709293365, -0.1715082973241806, -0.16425056755542755, -0.1569928228855133, -0.14973509311676025, -0.1424773633480072, -0.13521961867809296, -0.1279618889093399, -0.12070415169000626, -0.11344641447067261, -0.10618868470191956, -0.09893094748258591, -0.09167321026325226, -0.0844154804944992, -0.07715773582458496, -0.06989999860525131, -0.06264226883649826, -0.05538453161716461, -0.04812679812312126, -0.04086906462907791, -0.03361132740974426, -0.026353593915700912, -0.019095882773399353, -0.011838148348033428, -0.004580413922667503, 0.002677321434020996, 0.009935054928064346, 0.017192788422107697, 0.024450525641441345, 0.031708259135484695, 0.03896598517894745, 0.0462237186729908, 0.05348145216703415, 0.0607391893863678, 0.06799691915512085, 0.0752546563744545, 0.08251239359378815, 0.0897701233625412, 0.09702786803245544, 0.10428560525178909, 0.11154333502054214, 0.1188010722398758, 0.12605880200862885, 0.1333165466785431, 0.14057427644729614, 0.1478320062160492, 0.15508973598480225, 0.1623474657535553, 0.16960521042346954, 0.1768629401922226, 0.18412066996097565, 0.1913784146308899, 0.19863614439964294, 0.205893874168396, 0.21315161883831024]}, "train/policy_gradient_loss": -0.0024265816900879145, "parameters/features_extractor.network.2.weight": {"_type": "histogram", "values": [1.0, 0.0, 1.0, 0.0, 3.0, 1.0, 4.0, 6.0, 11.0, 6.0, 21.0, 33.0, 35.0, 53.0, 79.0, 121.0, 130.0, 181.0, 247.0, 313.0, 415.0, 501.0, 600.0, 746.0, 814.0, 973.0, 1076.0, 1244.0, 1494.0, 1398.0, 1522.0, 1594.0, 1724.0, 1660.0, 1669.0, 1688.0, 1604.0, 1473.0, 1388.0, 1224.0, 1118.0, 996.0, 886.0, 715.0, 641.0, 565.0, 419.0, 344.0, 266.0, 213.0, 166.0, 115.0, 76.0, 65.0, 46.0, 30.0, 21.0, 16.0, 6.0, 7.0, 2.0, 0.0, 1.0, 1.0], "bins": [-0.27088627219200134, -0.262790322303772, -0.2546943724155426, -0.24659842252731323, -0.23850247263908386, -0.2304065227508545, -0.22231055796146393, -0.21421460807323456, -0.2061186581850052, -0.19802270829677582, -0.18992675840854645, -0.18183080852031708, -0.1737348437309265, -0.16563889384269714, -0.15754294395446777, -0.1494469940662384, -0.14135104417800903, -0.13325509428977966, -0.1251591444015503, -0.11706318706274033, -0.10896723717451096, -0.10087128728628159, -0.09277532994747162, -0.08467938005924225, -0.07658343017101288, -0.06848748028278351, -0.06039152666926384, -0.05229557305574417, -0.0441996231675148, -0.03610367327928543, -0.028007719665765762, -0.019911766052246094, -0.011815786361694336, -0.0037198346108198166, 0.004376117140054703, 0.012472068890929222, 0.02056802064180374, 0.02866397053003311, 0.03675992414355278, 0.04485587775707245, 0.05295182764530182, 0.06104777753353119, 0.06914372742176056, 0.07723968476057053, 0.0853356346487999, 0.09343158453702927, 0.10152754187583923, 0.1096234917640686, 0.11771944165229797, 0.12581539154052734, 0.1339113414287567, 0.14200729131698608, 0.15010324120521545, 0.15819919109344482, 0.1662951558828354, 0.17439110577106476, 0.18248705565929413, 0.1905830055475235, 0.19867895543575287, 0.20677490532398224, 0.2148708701133728, 0.22296682000160217, 0.23106276988983154, 0.2391587197780609, 0.24725466966629028]}, "parameters/value_net.bias": {"_type": "histogram", "values": [0.0, 0.0, 0.0, 0.0, 0.0, 0.0, 0.0, 0.0, 0.0, 0.0, 0.0, 0.0, 0.0, 0.0, 0.0, 0.0, 0.0, 0.0, 0.0, 0.0, 0.0, 0.0, 0.0, 0.0, 0.0, 0.0, 0.0, 0.0, 0.0, 0.0, 0.0, 1.0, 0.0, 0.0, 0.0, 0.0, 0.0, 0.0, 0.0, 0.0, 0.0, 0.0, 0.0, 0.0, 0.0, 0.0, 0.0, 0.0, 0.0, 0.0, 0.0, 0.0, 0.0, 0.0, 0.0, 0.0, 0.0, 0.0, 0.0, 0.0, 0.0, 0.0, 0.0, 0.0], "bins": [-0.051441241055727005, -0.051441241055727005, -0.051441241055727005, -0.051441241055727005, -0.051441241055727005, -0.051441241055727005, -0.051441241055727005, -0.051441241055727005, -0.051441241055727005, -0.051441241055727005, -0.051441241055727005, -0.051441241055727005, -0.051441241055727005, -0.051441241055727005, -0.051441241055727005, -0.051441241055727005, -0.051441241055727005, -0.051441241055727005, -0.051441241055727005, -0.051441241055727005, -0.051441241055727005, -0.051441241055727005, -0.051441241055727005, -0.051441241055727005, -0.051441241055727005, -0.051441241055727005, -0.051441241055727005, -0.051441241055727005, -0.051441241055727005, -0.051441241055727005, -0.051441241055727005, -0.051441241055727005, -0.051441241055727005, -0.051441241055727005, -0.051441241055727005, -0.051441241055727005, -0.051441241055727005, -0.051441241055727005, -0.051441241055727005, -0.051441241055727005, -0.051441241055727005, -0.051441241055727005, -0.051441241055727005, -0.051441241055727005, -0.051441241055727005, -0.051441241055727005, -0.051441241055727005, -0.051441241055727005, -0.051441241055727005, -0.051441241055727005, -0.051441241055727005, -0.051441241055727005, -0.051441241055727005, -0.051441241055727005, -0.051441241055727005, -0.051441241055727005, -0.051441241055727005, -0.051441241055727005, -0.051441241055727005, -0.051441241055727005, -0.051441241055727005, -0.051441241055727005, -0.051441241055727005, -0.051441241055727005, -0.051441241055727005]}, "avg10_score": -250.5181818181818, "train/entropy_loss": -4.252867698669434, "parameters/value_net.weight": {"_type": "histogram", "values": [1.0, 0.0, 0.0, 0.0, 0.0, 0.0, 0.0, 1.0, 1.0, 0.0, 2.0, 1.0, 1.0, 0.0, 6.0, 3.0, 1.0, 3.0, 2.0, 0.0, 2.0, 1.0, 1.0, 5.0, 0.0, 1.0, 0.0, 0.0, 0.0, 1.0, 0.0, 0.0, 0.0, 0.0, 1.0, 1.0, 0.0, 3.0, 3.0, 1.0, 1.0, 1.0, 1.0, 3.0, 3.0, 0.0, 1.0, 1.0, 1.0, 2.0, 0.0, 0.0, 1.0, 1.0, 1.0, 0.0, 1.0, 3.0, 0.0, 0.0, 0.0, 0.0, 0.0, 1.0], "bins": [-0.33972010016441345, -0.3290523290634155, -0.3183845281600952, -0.3077167272567749, -0.297048956155777, -0.28638118505477905, -0.27571338415145874, -0.2650455832481384, -0.2543778121471405, -0.24371002614498138, -0.23304224014282227, -0.22237445414066315, -0.21170666813850403, -0.2010388821363449, -0.1903710961341858, -0.17970331013202667, -0.16903552412986755, -0.15836773812770844, -0.14769995212554932, -0.1370321661233902, -0.12636438012123108, -0.11569659411907196, -0.10502880811691284, -0.09436102211475372, -0.0836932361125946, -0.07302545011043549, -0.06235766410827637, -0.05168987810611725, -0.04102209210395813, -0.03035430610179901, -0.019686520099639893, -0.009018734097480774, 0.001649022102355957, 0.012316808104515076, 0.022984594106674194, 0.03365238010883331, 0.04432016611099243, 0.05498795211315155, 0.06565573811531067, 0.07632352411746979, 0.0869913101196289, 0.09765909612178802, 0.10832688212394714, 0.11899466812610626, 0.12966245412826538, 0.1403302401304245, 0.15099802613258362, 0.16166581213474274, 0.17233359813690186, 0.18300138413906097, 0.1936691701412201, 0.2043369561433792, 0.21500474214553833, 0.22567252814769745, 0.23634031414985657, 0.24700810015201569, 0.2576758861541748, 0.2683436870574951, 0.27901145815849304, 0.28967922925949097, 0.3003470301628113, 0.3110148310661316, 0.3216826021671295, 0.33235037326812744, 0.34301817417144775]}, "parameters/action_net.bias": {"_type": "histogram", "values": [2.0, 0.0, 0.0, 0.0, 0.0, 0.0, 0.0, 0.0, 0.0, 0.0, 0.0, 0.0, 0.0, 0.0, 0.0, 0.0, 0.0, 0.0, 0.0, 0.0, 0.0, 0.0, 0.0, 0.0, 0.0, 0.0, 0.0, 0.0, 0.0, 0.0, 0.0, 0.0, 0.0, 0.0, 0.0, 0.0, 0.0, 0.0, 0.0, 0.0, 0.0, 0.0, 0.0, 0.0, 0.0, 0.0, 0.0, 0.0, 0.0, 0.0, 0.0, 0.0, 0.0, 0.0, 0.0, 0.0, 0.0, 0.0, 0.0, 0.0, 0.0, 0.0, 0.0, 1.0], "bins": [1.6265920521618682e-06, 2.11935202969471e-05, 4.0760449337540194e-05, 6.032738019712269e-05, 7.989430741872638e-05, 9.946123464033008e-05, 0.00011902816913789138, 0.0001385951036354527, 0.00015816203085705638, 0.00017772895807866007, 0.00019729588530026376, 0.00021686282707378268, 0.00023642973974347115, 0.00025599668151699007, 0.000275563623290509, 0.00029513053596019745, 0.0003146974486298859, 0.00033426439040340483, 0.0003538313030730933, 0.0003733982448466122, 0.0003929651575163007, 0.0004125320992898196, 0.0004320990410633385, 0.000451665953733027, 0.0004712328955065459, 0.0004907998372800648, 0.0005103667499497533, 0.0005299336626194417, 0.0005495006334967911, 0.0005690675461664796, 0.000588634458836168, 0.0006082013715058565, 0.000627768284175545, 0.0006473351968452334, 0.0006669021677225828, 0.0006864690803922713, 0.0007060359930619597, 0.0007256029057316482, 0.0007451698766089976, 0.000764736789278686, 0.0007843037019483745, 0.000803870614618063, 0.0008234375854954123, 0.0008430044981651008, 0.0008625714108347893, 0.0008821383235044777, 0.0009017052943818271, 0.0009212722070515156, 0.000940839177928865, 0.0009604060905985534, 0.0009799730032682419, 0.0009995399741455913, 0.0010191069450229406, 0.0010386737994849682, 0.0010582407703623176, 0.001077807741239667, 0.0010973745957016945, 0.0011169415665790439, 0.0011365084210410714, 0.0011560753919184208, 0.0011756423627957702, 0.0011952092172577977, 0.001214776188135147, 0.0012343430425971746, 0.001253910013474524]}, "parameters/mlp_extractor.policy_net.0.weight": {"_type": "histogram", "values": [3.0, 1.0, 0.0, 2.0, 1.0, 9.0, 8.0, 14.0, 16.0, 20.0, 30.0, 47.0, 53.0, 80.0, 91.0, 124.0, 155.0, 199.0, 215.0, 263.0, 283.0, 370.0, 424.0, 510.0, 484.0, 569.0, 646.0, 676.0, 724.0, 739.0, 804.0, 786.0, 765.0, 814.0, 724.0, 741.0, 666.0, 638.0, 571.0, 495.0, 447.0, 403.0, 306.0, 313.0, 233.0, 215.0, 163.0, 143.0, 92.0, 75.0, 68.0, 44.0, 35.0, 24.0, 15.0, 17.0, 10.0, 9.0, 3.0, 2.0, 2.0, 1.0, 1.0, 3.0], "bins": [-0.3368492126464844, -0.3262541890144348, -0.31565913558006287, -0.3050640821456909, -0.29446905851364136, -0.2838740348815918, -0.27327898144721985, -0.2626839280128479, -0.25208890438079834, -0.24149386584758759, -0.23089882731437683, -0.22030378878116608, -0.20970875024795532, -0.19911371171474457, -0.1885186731815338, -0.17792363464832306, -0.1673285961151123, -0.15673355758190155, -0.1461385190486908, -0.13554348051548004, -0.12494844198226929, -0.11435340344905853, -0.10375836491584778, -0.09316332638263702, -0.08256828784942627, -0.07197324931621552, -0.06137821078300476, -0.050783172249794006, -0.04018813371658325, -0.029593095183372498, -0.018998056650161743, -0.008403018116950989, 0.002191990613937378, 0.012787029147148132, 0.023382067680358887, 0.03397710621356964, 0.044572144746780396, 0.05516718327999115, 0.0657622218132019, 0.07635726034641266, 0.08695229887962341, 0.09754733741283417, 0.10814237594604492, 0.11873741447925568, 0.12933245301246643, 0.13992749154567719, 0.15052253007888794, 0.1611175686120987, 0.17171260714530945, 0.1823076456785202, 0.19290268421173096, 0.2034977227449417, 0.21409276127815247, 0.22468779981136322, 0.23528283834457397, 0.24587787687778473, 0.2564729154109955, 0.26706796884536743, 0.277662992477417, 0.28825801610946655, 0.2988530695438385, 0.30944812297821045, 0.32004314661026, 0.33063817024230957, 0.3412332236766815]}, "_timestamp": 1657431558.156843, "avg10_checkpoints": 109.0909090909091, "train/explained_variance": 4.4465065002441406e-05, "time/fps": 35.0, "parameters/features_extractor.network.9.bias": {"_type": "histogram", "values": [1.0, 0.0, 0.0, 2.0, 0.0, 1.0, 0.0, 2.0, 4.0, 4.0, 2.0, 3.0, 4.0, 1.0, 7.0, 5.0, 14.0, 9.0, 12.0, 10.0, 10.0, 4.0, 4.0, 10.0, 3.0, 8.0, 6.0, 4.0, 1.0, 0.0, 1.0, 2.0, 1.0, 1.0, 4.0, 2.0, 1.0, 4.0, 2.0, 3.0, 1.0, 3.0, 7.0, 5.0, 5.0, 14.0, 8.0, 6.0, 6.0, 6.0, 7.0, 7.0, 6.0, 4.0, 5.0, 3.0, 2.0, 3.0, 0.0, 0.0, 1.0, 0.0, 0.0, 2.0], "bins": [-0.005112408194690943, -0.0049585807137191296, -0.004804753698408604, -0.0046509262174367905, -0.004497098736464977, -0.004343271255493164, -0.004189444240182638, -0.004035616759210825, -0.0038817892782390118, -0.003727962030097842, -0.003574134549126029, -0.0034203073009848595, -0.0032664798200130463, -0.0031126525718718767, -0.002958825323730707, -0.002804997842758894, -0.0026511705946177244, -0.002497343346476555, -0.0023435158655047417, -0.002189688617363572, -0.002035861136391759, -0.0018820338882505894, -0.001728206523694098, -0.0015743791591376066, -0.001420551910996437, -0.0012667245464399457, -0.0011128971818834543, -0.0009590698755346239, -0.0008052425109781325, -0.0006514151464216411, -0.0004975878400728106, -0.0003437604755163193, -0.00018993299454450607, -3.6105644539929926e-05, 0.00011772170546464622, 0.00027154904091730714, 0.0004253764054737985, 0.0005792037700302899, 0.0007330310763791203, 0.0008868584409356117, 0.001040685921907425, 0.0011945132864639163, 0.0013483406510204077, 0.0015021678991615772, 0.0016559953801333904, 0.00180982262827456, 0.0019636498764157295, 0.0021174773573875427, 0.0022713046055287123, 0.002425131853669882, 0.002578959334641695, 0.0027327865827828646, 0.0028866140637546778, 0.0030404413118958473, 0.0031942687928676605, 0.00334809604100883, 0.0035019232891499996, 0.003655750537291169, 0.0038095780182629824, 0.003963405266404152, 0.004117232747375965, 0.004271060228347778, 0.004424887243658304, 0.004578714724630117, 0.004732542205601931]}, "train/loss": 2099.078857421875, "parameters/features_extractor.network.0.weight": {"_type": "histogram", "values": [2.0, 2.0, 5.0, 6.0, 11.0, 15.0, 26.0, 32.0, 55.0, 67.0, 94.0, 123.0, 160.0, 218.0, 233.0, 317.0, 356.0, 447.0, 493.0, 630.0, 694.0, 744.0, 911.0, 927.0, 1011.0, 1129.0, 1188.0, 1217.0, 1145.0, 1169.0, 1192.0, 1143.0, 1070.0, 1007.0, 952.0, 880.0, 809.0, 702.0, 648.0, 540.0, 474.0, 367.0, 310.0, 249.0, 197.0, 149.0, 116.0, 98.0, 78.0, 42.0, 40.0, 30.0, 13.0, 19.0, 9.0, 3.0, 5.0, 3.0, 1.0, 1.0, 0.0, 0.0, 1.0, 1.0], "bins": [-0.18104201555252075, -0.1747698187828064, -0.16849760711193085, -0.1622254103422165, -0.15595319867134094, -0.1496810019016266, -0.14340879023075104, -0.13713659346103668, -0.13086438179016113, -0.12459217756986618, -0.11831997334957123, -0.11204776912927628, -0.10577556490898132, -0.09950336813926697, -0.09323115646839142, -0.08695895969867706, -0.08068675547838211, -0.07441455125808716, -0.0681423470377922, -0.06187014281749725, -0.0555979385972023, -0.04932573810219765, -0.043053533881902695, -0.03678132966160774, -0.03050912916660309, -0.024236924946308136, -0.017964720726013184, -0.01169251836836338, -0.005420314148068428, 0.0008518882095813751, 0.0071240924298763275, 0.01339629665017128, 0.01966850459575653, 0.025940708816051483, 0.032212913036346436, 0.03848511725664139, 0.04475732147693634, 0.051029521971940994, 0.05730172619223595, 0.0635739266872406, 0.06984613835811615, 0.0761183425784111, 0.08239054679870605, 0.08866275101900101, 0.09493495523929596, 0.10120715200901031, 0.10747936367988586, 0.11375156044960022, 0.12002376466989517, 0.12629596889019012, 0.13256816565990448, 0.13884037733078003, 0.14511257410049438, 0.15138478577136993, 0.1576569825410843, 0.16392919421195984, 0.1702013909816742, 0.17647358775138855, 0.1827457994222641, 0.18901799619197845, 0.195290207862854, 0.20156240463256836, 0.2078346163034439, 0.21410681307315826, 0.2203790247440338]}, "Episode_Sim_Time": 400, "train/learning_rate": 9.999999747378752e-06, "parameters/mlp_extractor.value_net.2.bias": {"_type": "histogram", "values": [1.0, 0.0, 1.0, 0.0, 0.0, 0.0, 1.0, 1.0, 1.0, 1.0, 3.0, 2.0, 3.0, 3.0, 1.0, 3.0, 1.0, 2.0, 1.0, 0.0, 1.0, 0.0, 1.0, 1.0, 0.0, 0.0, 0.0, 2.0, 0.0, 0.0, 1.0, 0.0, 0.0, 0.0, 0.0, 0.0, 0.0, 0.0, 1.0, 1.0, 0.0, 1.0, 0.0, 0.0, 0.0, 1.0, 0.0, 1.0, 2.0, 1.0, 1.0, 2.0, 2.0, 4.0, 3.0, 3.0, 2.0, 2.0, 1.0, 2.0, 1.0, 0.0, 0.0, 2.0], "bins": [-0.0424463264644146, -0.04118582606315613, -0.03992532566189766, -0.03866482526063919, -0.037404321134090424, -0.036143820732831955, -0.034883320331573486, -0.03362281993031502, -0.03236231952905655, -0.03110181912779808, -0.029841318726539612, -0.028580816462635994, -0.027320316061377525, -0.026059815660119057, -0.02479931339621544, -0.02353881299495697, -0.0222783125936985, -0.021017812192440033, -0.019757311791181564, -0.018496809527277946, -0.017236309126019478, -0.01597580872476101, -0.014715307392179966, -0.013454806059598923, -0.012194305658340454, -0.010933805257081985, -0.009673303924500942, -0.008412802591919899, -0.00715230219066143, -0.005891801323741674, -0.0046313004568219185, -0.0033707991242408752, -0.0021102987229824066, -0.0008497978560626507, 0.00041070301085710526, 0.0016712038777768612, 0.002931704744696617, 0.004192205611616373, 0.005452706478536129, 0.006713207811117172, 0.007973708212375641, 0.00923420861363411, 0.010494709946215153, 0.011755211278796196, 0.013015711680054665, 0.014276212081313133, 0.015536713413894176, 0.01679721474647522, 0.01805771514773369, 0.019318215548992157, 0.020578715950250626, 0.021839218214154243, 0.023099718615412712, 0.02436021901667118, 0.0256207212805748, 0.026881221681833267, 0.028141722083091736, 0.029402222484350204, 0.030662722885608673, 0.03192322328686714, 0.03318372368812561, 0.03444422781467438, 0.035704728215932846, 0.036965228617191315, 0.03822572901844978]}, "largest_steps": 198, "train/clip_fraction": 0.0040039061568677425, "parameters/mlp_extractor.policy_net.2.bias": {"_type": "histogram", "values": [1.0, 1.0, 0.0, 1.0, 0.0, 0.0, 0.0, 0.0, 0.0, 0.0, 0.0, 0.0, 1.0, 0.0, 0.0, 1.0, 1.0, 0.0, 2.0, 0.0, 0.0, 3.0, 3.0, 0.0, 1.0, 2.0, 3.0, 5.0, 7.0, 11.0, 7.0, 2.0, 0.0, 1.0, 1.0, 2.0, 2.0, 0.0, 1.0, 0.0, 0.0, 1.0, 0.0, 0.0, 0.0, 1.0, 1.0, 1.0, 0.0, 0.0, 0.0, 0.0, 0.0, 0.0, 0.0, 0.0, 0.0, 0.0, 0.0, 0.0, 0.0, 0.0, 0.0, 1.0], "bins": [-0.0012807910097762942, -0.0012365494621917605, -0.001192307798191905, -0.0011480662506073713, -0.0011038247030228376, -0.001059583155438304, -0.0010153416078537703, -0.0009710999438539147, -0.000926858396269381, -0.0008826168486848474, -0.0008383752428926528, -0.0007941336371004581, -0.0007498920895159245, -0.0007056505419313908, -0.0006614089361391962, -0.0006171673303470016, -0.0005729257827624679, -0.0005286842351779342, -0.00048444262938573956, -0.0004402010526973754, -0.00039595947600901127, -0.0003517178993206471, -0.00030747632263228297, -0.0002632347459439188, -0.00021899316925555468, -0.00017475159256719053, -0.00013051001587882638, -8.626843919046223e-05, -4.2026862502098083e-05, 2.2147141862660646e-06, 4.645629087463021e-05, 9.069786756299436e-05, 0.00013493932783603668, 0.00017918090452440083, 0.00022342248121276498, 0.0002676640579011291, 0.0003119056345894933, 0.0003561472112778574, 0.00040038878796622157, 0.0004446303646545857, 0.0004888719413429499, 0.0005331134889274836, 0.0005773550947196782, 0.0006215967005118728, 0.0006658382480964065, 0.0007100797956809402, 0.0007543214014731348, 0.0007985630072653294, 0.000842804554849863, 0.0008870461024343967, 0.0009312877082265913, 0.000975529314018786, 0.0010197708616033196, 0.0010640124091878533, 0.0011082540731877089, 0.0011524956207722425, 0.0011967371683567762, 0.00124097871594131, 0.0012852202635258436, 0.0013294619275256991, 0.0013737034751102328, 0.0014179450226947665, 0.001462186686694622, 0.0015064282342791557, 0.0015506697818636894]}, "train/std": 0.9991557002067566, "rollout/ep_rew_mean": -251.9770050048828, "parameters/features_extractor.network.0.bias": {"_type": "histogram", "values": [1.0, 1.0, 0.0, 1.0, 0.0, 0.0, 1.0, 1.0, 0.0, 2.0, 2.0, 0.0, 0.0, 0.0, 0.0, 1.0, 0.0, 0.0, 1.0, 0.0, 0.0, 0.0, 0.0, 0.0, 0.0, 0.0, 0.0, 0.0, 0.0, 1.0, 0.0, 0.0, 0.0, 0.0, 1.0, 0.0, 1.0, 4.0, 1.0, 4.0, 1.0, 2.0, 0.0, 1.0, 0.0, 0.0, 0.0, 1.0, 0.0, 0.0, 1.0, 0.0, 1.0, 0.0, 0.0, 0.0, 0.0, 0.0, 1.0, 0.0, 0.0, 0.0, 0.0, 1.0], "bins": [-0.003781782928854227, -0.003431325312703848, -0.0030808676965534687, -0.002730410313233733, -0.002379952697083354, -0.002029495080932975, -0.0016790376976132393, -0.00132858008146286, -0.000978122465312481, -0.0006276649073697627, -0.0002772073494270444, 7.325015030801296e-05, 0.00042370776645839214, 0.0007741653826087713, 0.0011246227659285069, 0.001475080382078886, 0.0018255379982292652, 0.0021759956143796444, 0.0025264532305300236, 0.002876910613849759, 0.0032273682300001383, 0.0035778258461505175, 0.003928283229470253, 0.004278740845620632, 0.004629197996109724, 0.004979655612260103, 0.005330113228410482, 0.005680570378899574, 0.0060310279950499535, 0.006381485611200333, 0.006731943227350712, 0.007082400843501091, 0.007432859390974045, 0.007783317007124424, 0.008133774623274803, 0.008484232239425182, 0.008834689855575562, 0.00918514747172594, 0.00953560508787632, 0.009886061772704124, 0.010236520320177078, 0.010586977936327457, 0.010937435552477837, 0.011287893168628216, 0.011638350784778595, 0.011988808400928974, 0.012339266017079353, 0.012689722701907158, 0.013040180318057537, 0.013390637934207916, 0.013741095550358295, 0.014091553166508675, 0.014442010782659054, 0.014792468398809433, 0.015142925083637238, 0.015493383631110191, 0.015843840315937996, 0.0161942970007658, 0.016544755548238754, 0.01689521223306656, 0.017245670780539513, 0.017596127465367317, 0.01794658601284027, 0.018297042697668076, 0.01864750124514103]}, "_step": 619, "parameters/features_extractor.network.6.weight": {"_type": "histogram", "values": [1.0, 0.0, 0.0, 0.0, 1.0, 0.0, 0.0, 3.0, 3.0, 1.0, 1.0, 4.0, 6.0, 4.0, 5.0, 9.0, 9.0, 17.0, 15.0, 9.0, 15.0, 19.0, 24.0, 29.0, 20.0, 27.0, 26.0, 40.0, 35.0, 39.0, 36.0, 40.0, 38.0, 39.0, 34.0, 56.0, 52.0, 31.0, 37.0, 39.0, 34.0, 21.0, 20.0, 23.0, 20.0, 23.0, 24.0, 18.0, 13.0, 16.0, 8.0, 7.0, 3.0, 5.0, 6.0, 5.0, 3.0, 5.0, 1.0, 3.0, 0.0, 0.0, 0.0, 2.0], "bins": [-0.5942709445953369, -0.576539933681488, -0.5588089823722839, -0.5410779714584351, -0.523347020149231, -0.5056160092353821, -0.487885057926178, -0.4701540470123291, -0.452423095703125, -0.4346921145915985, -0.416961133480072, -0.39923015236854553, -0.38149917125701904, -0.36376819014549255, -0.34603720903396606, -0.3283061981201172, -0.3105752170085907, -0.2928442358970642, -0.2751132547855377, -0.25738227367401123, -0.23965129256248474, -0.22192031145095825, -0.20418931543827057, -0.18645833432674408, -0.1687273383140564, -0.1509963572025299, -0.13326537609100342, -0.11553438752889633, -0.09780340641736984, -0.08007242530584335, -0.06234143674373627, -0.04461045563220978, -0.026879489421844482, -0.009148506447672844, 0.008582476526498795, 0.026313461363315582, 0.04404444247484207, 0.06177542358636856, 0.07950641214847565, 0.09723739326000214, 0.11496835947036743, 0.13269934058189392, 0.1504303216934204, 0.1681613028049469, 0.1858922839164734, 0.20362326502799988, 0.22135426104068756, 0.23908524215221405, 0.25681623816490173, 0.2745472192764282, 0.2922782003879547, 0.3100091814994812, 0.3277401626110077, 0.3454711437225342, 0.36320215463638306, 0.38093310594558716, 0.39866411685943604, 0.4163950979709625, 0.434126079082489, 0.4518570601940155, 0.469588041305542, 0.4873190224170685, 0.505050003528595, 0.5227810144424438, 0.540511965751648]}, "parameters/mlp_extractor.policy_net.0.bias": {"_type": "histogram", "values": [2.0, 1.0, 0.0, 0.0, 0.0, 0.0, 0.0, 0.0, 0.0, 0.0, 0.0, 0.0, 0.0, 1.0, 1.0, 1.0, 1.0, 1.0, 2.0, 0.0, 1.0, 1.0, 0.0, 1.0, 0.0, 1.0, 0.0, 2.0, 1.0, 1.0, 4.0, 3.0, 14.0, 10.0, 2.0, 2.0, 2.0, 2.0, 1.0, 0.0, 0.0, 1.0, 0.0, 0.0, 0.0, 0.0, 1.0, 0.0, 1.0, 0.0, 0.0, 2.0, 0.0, 0.0, 0.0, 0.0, 0.0, 0.0, 0.0, 0.0, 0.0, 0.0, 0.0, 1.0], "bins": [-0.0010923061054199934, -0.001058991882018745, -0.0010256777750328183, -0.0009923635516315699, -0.0009590493864379823, -0.0009257352212443948, -0.0008924209978431463, -0.0008591068326495588, -0.0008257926674559712, -0.0007924785022623837, -0.0007591643370687962, -0.0007258501136675477, -0.0006925359484739602, -0.0006592217832803726, -0.0006259075598791242, -0.0005925933946855366, -0.0005592792294919491, -0.0005259650642983615, -0.000492650899104774, -0.00045933667570352554, -0.000426022510509938, -0.00039270834531635046, -0.00035939415101893246, -0.00032607995672151446, -0.0002927657915279269, -0.0002594516263343394, -0.00022613743203692138, -0.0001928232522914186, -0.00015950907254591584, -0.00012619489280041307, -9.28807130549103e-05, -5.956653330940753e-05, -2.625246997922659e-05, 7.061709766276181e-06, 4.037588951177895e-05, 7.369006925728172e-05, 0.00010700424900278449, 0.00014031842874828726, 0.00017363260849379003, 0.0002069467882392928, 0.00024026096798479557, 0.0002735751331783831, 0.0003068893274758011, 0.0003402035217732191, 0.00037351768696680665, 0.0004068318521603942, 0.0004401460464578122, 0.0004734602407552302, 0.0005067744059488177, 0.0005400885711424053, 0.0005734027363359928, 0.0006067169597372413, 0.0006400311249308288, 0.0006733452901244164, 0.0007066595135256648, 0.0007399736787192523, 0.0007732878439128399, 0.0008066020091064274, 0.000839916174300015, 0.0008732303977012634, 0.000906544562894851, 0.0009398587280884385, 0.000973172951489687, 0.0010064870584756136, 0.001039801281876862]}, "_runtime": 1876, "train/approx_kl": 0.00247309822589159, "train/value_loss": 4052.87255859375, "parameters/mlp_extractor.value_net.2.weight": {"_type": "histogram", "values": [2.0, 1.0, 2.0, 1.0, 5.0, 7.0, 8.0, 5.0, 12.0, 14.0, 17.0, 19.0, 26.0, 38.0, 46.0, 43.0, 58.0, 77.0, 83.0, 68.0, 93.0, 92.0, 115.0, 129.0, 126.0, 153.0, 173.0, 134.0, 169.0, 193.0, 173.0, 177.0, 181.0, 147.0, 138.0, 136.0, 152.0, 113.0, 121.0, 108.0, 105.0, 96.0, 94.0, 82.0, 55.0, 62.0, 46.0, 43.0, 36.0, 24.0, 19.0, 24.0, 13.0, 8.0, 7.0, 3.0, 4.0, 2.0, 4.0, 4.0, 6.0, 2.0, 0.0, 2.0], "bins": [-0.5815615653991699, -0.562803328037262, -0.544045090675354, -0.5252867937088013, -0.5065285563468933, -0.48777031898498535, -0.4690120816230774, -0.45025381445884705, -0.4314955472946167, -0.41273730993270874, -0.3939790427684784, -0.37522080540657043, -0.3564625382423401, -0.33770430088043213, -0.31894606351852417, -0.3001877963542938, -0.28142955899238586, -0.2626713216304779, -0.24391305446624756, -0.2251548171043396, -0.20639654994010925, -0.1876383125782013, -0.16888006031513214, -0.150121808052063, -0.13136357069015503, -0.11260531842708588, -0.09384706616401672, -0.07508882135152817, -0.056330569088459015, -0.03757231682538986, -0.018814072012901306, -5.581974983215332e-05, 0.018702447414398193, 0.037460699677467346, 0.0562189482152462, 0.07497719675302505, 0.09373544901609421, 0.11249370127916336, 0.13125194609165192, 0.15001019835472107, 0.16876846551895142, 0.18752671778202057, 0.20628497004508972, 0.22504320740699768, 0.24380147457122803, 0.262559711933136, 0.28131794929504395, 0.3000762164592743, 0.31883445382118225, 0.3375926911830902, 0.35635095834732056, 0.3751091957092285, 0.39386746287345886, 0.4126257002353668, 0.43138396739959717, 0.4501422047615051, 0.4689004421234131, 0.48765867948532104, 0.506416916847229, 0.5251752138137817, 0.5439334511756897, 0.5626916885375977, 0.5814499258995056, 0.6002081632614136, 0.6189664602279663]}, "parameters/features_extractor.network.2.bias": {"_type": "histogram", "values": [1.0, 0.0, 2.0, 1.0, 1.0, 1.0, 2.0, 3.0, 0.0, 3.0, 1.0, 3.0, 1.0, 0.0, 1.0, 1.0, 0.0, 2.0, 2.0, 2.0, 1.0, 1.0, 0.0, 0.0, 0.0, 0.0, 1.0, 0.0, 0.0, 0.0, 0.0, 2.0, 2.0, 0.0, 1.0, 6.0, 1.0, 4.0, 4.0, 3.0, 3.0, 1.0, 1.0, 0.0, 1.0, 0.0, 1.0, 3.0, 0.0, 0.0, 0.0, 0.0, 0.0, 0.0, 0.0, 0.0, 0.0, 0.0, 0.0, 0.0, 0.0, 0.0, 0.0, 1.0], "bins": [-0.0054266927763819695, -0.005083322525024414, -0.004739952273666859, -0.004396582022309303, -0.004053211770951748, -0.003709841752424836, -0.0033664717338979244, -0.003023101482540369, -0.0026797312311828136, -0.0023363609798252583, -0.001992990728467703, -0.0016496207099407911, -0.0013062504585832357, -0.0009628802072256804, -0.0006195101886987686, -0.0002761399373412132, 6.723031401634216e-05, 0.00041060050716623664, 0.0007539707003161311, 0.0010973408352583647, 0.00144071108661592, 0.0017840813379734755, 0.002127451356500387, 0.0024708216078579426, 0.0028141913935542107, 0.003157561644911766, 0.0035009318962693214, 0.003844301914796233, 0.004187672398984432, 0.004531042650341988, 0.004874412436038256, 0.005217782687395811, 0.005561152473092079, 0.0059045227244496346, 0.00624789297580719, 0.006591263227164745, 0.006934633478522301, 0.007278003729879856, 0.007621373515576124, 0.007964743301272392, 0.008308114483952522, 0.008651484735310078, 0.008994854986667633, 0.009338225238025188, 0.009681595489382744, 0.0100249657407403, 0.010368335992097855, 0.010711705312132835, 0.01105507556349039, 0.011398445814847946, 0.011741816066205502, 0.012085186317563057, 0.012428556568920612, 0.012771926820278168, 0.013115296140313148, 0.013458667322993279, 0.01380203664302826, 0.014145406894385815, 0.01448877714574337, 0.014832147397100925, 0.01517551764845848, 0.015518887899816036, 0.01586225815117359, 0.016205627471208572, 0.016548998653888702]}, "parameters/features_extractor.network.6.bias": {"_type": "histogram", "values": [1.0, 1.0, 0.0, 0.0, 0.0, 1.0, 0.0, 0.0, 0.0, 0.0, 0.0, 0.0, 0.0, 0.0, 0.0, 0.0, 1.0, 0.0, 0.0, 1.0, 0.0, 0.0, 0.0, 0.0, 0.0, 0.0, 0.0, 0.0, 0.0, 0.0, 0.0, 0.0, 0.0, 0.0, 0.0, 0.0, 1.0, 0.0, 0.0, 0.0, 0.0, 1.0, 1.0, 2.0, 1.0, 1.0, 1.0, 0.0, 0.0, 0.0, 1.0, 0.0, 0.0, 0.0, 0.0, 0.0, 0.0, 0.0, 0.0, 0.0, 0.0, 0.0, 0.0, 2.0], "bins": [-0.0020509331952780485, -0.0018964322516694665, -0.0017419313080608845, -0.0015874302480369806, -0.0014329294208437204, -0.0012784283608198166, -0.0011239274172112346, -0.0009694264736026525, -0.0008149255299940705, -0.0006604245863854885, -0.0005059236427769065, -0.00035142264096066356, -0.00019692169735208154, -4.242075374349952e-05, 0.00011208024807274342, 0.00026658119168132544, 0.00042108213528990746, 0.0005755830788984895, 0.0007300840225070715, 0.0008845850243233144, 0.0010390859097242355, 0.0011935869697481394, 0.0013480879133567214, 0.0015025888569653034, 0.0016570899169892073, 0.0018115908605977893, 0.0019660918042063713, 0.002120592864230275, 0.0022750936914235353, 0.002429594751447439, 0.0025840955786406994, 0.0027385966386646032, 0.0028930972330272198, 0.0030475982930511236, 0.003202099120244384, 0.0033566001802682877, 0.003511101007461548, 0.0036656020674854517, 0.0038201031275093555, 0.003974603954702616, 0.004129104781895876, 0.004283605609089136, 0.004438106901943684, 0.004592607729136944, 0.004747108556330204, 0.004901609383523464, 0.005056110676378012, 0.005210611503571272, 0.005365112796425819, 0.00551961362361908, 0.005674114916473627, 0.005828615743666887, 0.0059831165708601475, 0.006137617398053408, 0.006292118690907955, 0.006446619518101215, 0.0066011203452944756, 0.006755621172487736, 0.006910122465342283, 0.0070646232925355434, 0.007219124119728804, 0.007373624946922064, 0.007528126239776611, 0.0076826270669698715, 0.007837127894163132]}, "parameters/features_extractor.network.4.bias": {"_type": "histogram", "values": [2.0, 0.0, 0.0, 1.0, 1.0, 0.0, 0.0, 1.0, 2.0, 1.0, 3.0, 1.0, 3.0, 4.0, 3.0, 4.0, 4.0, 4.0, 0.0, 0.0, 1.0, 0.0, 1.0, 1.0, 1.0, 0.0, 0.0, 0.0, 1.0, 0.0, 1.0, 0.0, 1.0, 1.0, 1.0, 3.0, 0.0, 1.0, 1.0, 0.0, 1.0, 0.0, 1.0, 2.0, 1.0, 1.0, 0.0, 0.0, 0.0, 2.0, 1.0, 4.0, 0.0, 0.0, 1.0, 1.0, 0.0, 0.0, 0.0, 0.0, 0.0, 0.0, 0.0, 1.0], "bins": [-0.0057701775804162025, -0.005513608455657959, -0.005257039330899715, -0.005000470671802759, -0.004743901547044516, -0.004487332422286272, -0.004230763763189316, -0.003974194638431072, -0.0037176255136728287, -0.003461056388914585, -0.003204487496986985, -0.0029479186050593853, -0.0026913494803011417, -0.002434780355542898, -0.0021782114636152983, -0.0019216424552723765, -0.0016650734469294548, -0.001408504438586533, -0.0011519354302436113, -0.0008953664219006896, -0.0006387974135577679, -0.00038222840521484613, -0.0001256593968719244, 0.00013090961147099733, 0.00038747861981391907, 0.0006440476281568408, 0.0009006166364997625, 0.0011571856448426843, 0.001413754653185606, 0.0016703236615285277, 0.0019268926698714495, 0.0021834615617990494, 0.0024400297552347183, 0.002696598879992962, 0.002953167771920562, 0.0032097366638481617, 0.0034663057886064053, 0.003722874913364649, 0.003979443572461605, 0.004236012697219849, 0.004492581821978092, 0.004749150946736336, 0.005005720071494579, 0.005262288730591536, 0.005518857855349779, 0.005775426980108023, 0.006031995639204979, 0.0062885647639632225, 0.006545133888721466, 0.00680170301347971, 0.007058272138237953, 0.0073148407973349094, 0.007571409922093153, 0.00782797858119011, 0.008084547705948353, 0.008341116830706596, 0.00859768595546484, 0.008854255080223083, 0.009110824204981327, 0.00936739332973957, 0.00962396152317524, 0.009880530647933483, 0.010137099772691727, 0.01039366889744997, 0.010650238022208214]}, "parameters/log_std": {"_type": "histogram", "values": [1.0, 0.0, 0.0, 0.0, 0.0, 0.0, 0.0, 0.0, 0.0, 0.0, 0.0, 0.0, 0.0, 0.0, 0.0, 0.0, 0.0, 0.0, 0.0, 0.0, 0.0, 0.0, 0.0, 0.0, 0.0, 0.0, 0.0, 0.0, 0.0, 0.0, 0.0, 0.0, 0.0, 0.0, 0.0, 0.0, 0.0, 0.0, 0.0, 0.0, 0.0, 0.0, 0.0, 0.0, 0.0, 0.0, 0.0, 0.0, 0.0, 0.0, 0.0, 0.0, 0.0, 0.0, 0.0, 0.0, 0.0, 0.0, 0.0, 0.0, 1.0, 0.0, 0.0, 1.0], "bins": [-0.005966963246464729, -0.005881696939468384, -0.005796431098133326, -0.00571116479113698, -0.0056258984841406345, -0.005540632642805576, -0.005455366335809231, -0.005370100028812885, -0.00528483372181654, -0.005199567414820194, -0.005114301573485136, -0.0050290352664887905, -0.004943768959492445, -0.004858503118157387, -0.004773236811161041, -0.004687970504164696, -0.0046027046628296375, -0.004517438355833292, -0.004432172514498234, -0.004346906207501888, -0.004261639900505543, -0.0041763740591704845, -0.004091107752174139, -0.0040058414451777935, -0.003920575603842735, -0.0038353095296770334, -0.003750043222680688, -0.003664777148514986, -0.0035795108415186405, -0.0034942447673529387, -0.003408978693187237, -0.0033237123861908913, -0.003238445846363902, -0.0031531797721982002, -0.0030679134652018547, -0.002982647391036153, -0.002897381316870451, -0.0028121150098741055, -0.0027268489357084036, -0.0026415828615427017, -0.002556316554546356, -0.0024710504803806543, -0.002385784173384309, -0.002300518099218607, -0.0022152517922222614, -0.0021299857180565596, -0.0020447196438908577, -0.001959453336894512, -0.0018741872627288103, -0.0017889210721477866, -0.001703654881566763, -0.001618388807401061, -0.0015331226168200374, -0.0014478564262390137, -0.0013625903520733118, -0.0012773241614922881, -0.0011920579709112644, -0.0011067917803302407, -0.001021525589749217, -0.0009362595155835152, -0.0008509933250024915, -0.0007657271344214678, -0.000680461002048105, -0.0005951948696747422, -0.0005099286790937185]}, "parameters/action_net.weight": {"_type": "histogram", "values": [1.0, 0.0, 0.0, 0.0, 1.0, 1.0, 0.0, 0.0, 1.0, 2.0, 0.0, 1.0, 1.0, 0.0, 0.0, 1.0, 0.0, 1.0, 0.0, 1.0, 0.0, 0.0, 0.0, 2.0, 3.0, 6.0, 5.0, 14.0, 16.0, 11.0, 23.0, 17.0, 24.0, 21.0, 8.0, 5.0, 3.0, 2.0, 3.0, 2.0, 1.0, 0.0, 2.0, 1.0, 0.0, 1.0, 1.0, 0.0, 1.0, 0.0, 1.0, 1.0, 0.0, 1.0, 2.0, 1.0, 0.0, 1.0, 0.0, 0.0, 0.0, 1.0, 0.0, 1.0], "bins": [-0.022909803315997124, -0.02217424288392067, -0.021438682451844215, -0.02070312201976776, -0.019967563450336456, -0.019232003018260002, -0.018496442586183548, -0.017760882154107094, -0.01702532172203064, -0.016289761289954185, -0.015554200857877731, -0.014818641357123852, -0.014083080925047398, -0.013347520492970943, -0.012611960992217064, -0.01187640056014061, -0.011140840128064156, -0.010405279695987701, -0.009669719263911247, -0.008934159763157368, -0.008198599331080914, -0.007463038899004459, -0.0067274789325892925, -0.005991918966174126, -0.0052563585340976715, -0.004520798102021217, -0.0037852381356060505, -0.00304967793636024, -0.0023141177371144295, -0.001578557537868619, -0.0008429973386228085, -0.0001074373722076416, 0.0006281249225139618, 0.0013636851217597723, 0.002099245321005583, 0.0028348055202513933, 0.003570365719497204, 0.004305926151573658, 0.005041486117988825, 0.005777046084403992, 0.006512606516480446, 0.0072481669485569, 0.007983727380633354, 0.008719286881387234, 0.009454847313463688, 0.010190407745540142, 0.010925967246294022, 0.011661527678370476, 0.01239708811044693, 0.013132648542523384, 0.013868208974599838, 0.014603768475353718, 0.015339328907430172, 0.01607488840818405, 0.016810448840260506, 0.01754600927233696, 0.018281569704413414, 0.019017130136489868, 0.019752690568566322, 0.020488251000642776, 0.02122380957007408, 0.021959370002150536, 0.02269493043422699, 0.023430490866303444, 0.024166051298379898]}, "_wandb": {"runtime": 1936}}