{"_step": 533, "_runtime": 1372, "_timestamp": 1657430744.1512663, "Episode reward": -253.3, "Episode_Sim_Time": 400, "episode Highspeed": 76.4612097863117, "Checkpoint reached": 105, "avg10_score": -252.1, "highest_speed": 104.81800649346839, "largest_steps": 211, "avg10_checkpoints": 84.54545454545455, "parameters/log_std": {"_type": "histogram", "values": [1.0, 0.0, 0.0, 0.0, 0.0, 0.0, 0.0, 0.0, 0.0, 0.0, 0.0, 0.0, 0.0, 0.0, 0.0, 0.0, 0.0, 0.0, 0.0, 0.0, 0.0, 0.0, 0.0, 0.0, 0.0, 0.0, 0.0, 0.0, 0.0, 0.0, 0.0, 0.0, 0.0, 0.0, 0.0, 0.0, 0.0, 0.0, 0.0, 0.0, 0.0, 0.0, 0.0, 0.0, 0.0, 0.0, 0.0, 0.0, 0.0, 0.0, 1.0, 0.0, 0.0, 0.0, 0.0, 0.0, 0.0, 0.0, 0.0, 0.0, 0.0, 0.0, 0.0, 1.0], "bins": [-0.004678098019212484, -0.004578113555908203, -0.004478129092603922, -0.004378144629299641, -0.004278160165995359, -0.004178175702691078, -0.004078191239386797, -0.003978206776082516, -0.003878222079947591, -0.0037782376166433096, -0.0036782531533390284, -0.003578268690034747, -0.003478284226730466, -0.003378299530595541, -0.0032783150672912598, -0.0031783306039869785, -0.0030783461406826973, -0.002978361677378416, -0.002878377214074135, -0.0027783927507698536, -0.0026784082874655724, -0.002578423824161291, -0.00247843936085701, -0.002378454664722085, -0.0022784704342484474, -0.002178485970944166, -0.002078501507639885, -0.0019785170443356037, -0.0018785324646160007, -0.0017785480013117194, -0.0016785635380074382, -0.0015785789582878351, -0.0014785944949835539, -0.0013786100316792727, -0.0012786255683749914, -0.0011786411050707102, -0.0010786565253511071, -0.0009786720620468259, -0.0008786875987425447, -0.0007787030772306025, -0.0006787185557186604, -0.0005787340924143791, -0.00047874957090243697, -0.00037876510759815574, -0.00027878061519004405, -0.00017879612278193235, -7.881165947765112e-05, 2.117286203429103e-05, 0.00012115726713091135, 0.00022114175953902304, 0.00032112625194713473, 0.00042111071525141597, 0.0005210952367633581, 0.0006210797000676394, 0.0007210641633719206, 0.0008210486848838627, 0.000921033148188144, 0.0010210176697000861, 0.0011210021330043674, 0.0012209865963086486, 0.0013209710596129298, 0.0014209556393325329, 0.0015209401026368141, 0.0016209245659410954, 0.0017209090292453766]}, "parameters/features_extractor.network.0.weight": {"_type": "histogram", "values": [2.0, 2.0, 5.0, 6.0, 11.0, 15.0, 27.0, 30.0, 56.0, 66.0, 94.0, 125.0, 161.0, 211.0, 239.0, 320.0, 358.0, 444.0, 495.0, 631.0, 694.0, 747.0, 914.0, 921.0, 1017.0, 1128.0, 1187.0, 1221.0, 1145.0, 1170.0, 1199.0, 1132.0, 1068.0, 1007.0, 959.0, 874.0, 806.0, 701.0, 654.0, 540.0, 468.0, 366.0, 307.0, 248.0, 198.0, 151.0, 112.0, 99.0, 79.0, 40.0, 40.0, 30.0, 15.0, 17.0, 9.0, 3.0, 5.0, 3.0, 1.0, 1.0, 0.0, 0.0, 1.0, 1.0], "bins": [-0.18108980357646942, -0.1748168021440506, -0.16854378581047058, -0.16227078437805176, -0.15599776804447174, -0.14972476661205292, -0.1434517502784729, -0.13717874884605408, -0.13090574741363525, -0.12463273853063583, -0.11835972964763641, -0.11208672821521759, -0.10581371933221817, -0.09954071044921875, -0.09326770156621933, -0.08699469268321991, -0.08072168380022049, -0.07444867491722107, -0.06817566603422165, -0.06190266087651253, -0.055629655718803406, -0.049356646835803986, -0.043083637952804565, -0.036810632795095444, -0.030537620186805725, -0.024264613166451454, -0.017991606146097183, -0.011718597263097763, -0.005445590242743492, 0.0008274167776107788, 0.007100425660610199, 0.01337343081831932, 0.019646435976028442, 0.025919442996382713, 0.032192450016736984, 0.038465458899736404, 0.044738464057445526, 0.051011472940444946, 0.057284481823444366, 0.06355749070644379, 0.06983049213886261, 0.07610350102186203, 0.08237650990486145, 0.08864951133728027, 0.0949225202202797, 0.10119552910327911, 0.10746853798627853, 0.11374154686927795, 0.12001455575227737, 0.1262875646352768, 0.13256056606769562, 0.13883358240127563, 0.14510658383369446, 0.15137958526611328, 0.1576526015996933, 0.16392560303211212, 0.17019861936569214, 0.17647162079811096, 0.18274463713169098, 0.1890176385641098, 0.19529065489768982, 0.20156365633010864, 0.20783665776252747, 0.21410967409610748, 0.2203826755285263]}, "parameters/features_extractor.network.0.bias": {"_type": "histogram", "values": [1.0, 1.0, 0.0, 1.0, 0.0, 0.0, 0.0, 1.0, 1.0, 1.0, 1.0, 1.0, 1.0, 0.0, 0.0, 1.0, 0.0, 0.0, 1.0, 0.0, 0.0, 0.0, 0.0, 0.0, 0.0, 0.0, 0.0, 0.0, 0.0, 0.0, 1.0, 0.0, 0.0, 0.0, 0.0, 0.0, 1.0, 0.0, 3.0, 2.0, 3.0, 2.0, 3.0, 0.0, 0.0, 1.0, 0.0, 0.0, 0.0, 1.0, 0.0, 1.0, 1.0, 0.0, 0.0, 0.0, 0.0, 0.0, 1.0, 0.0, 0.0, 0.0, 0.0, 1.0], "bins": [-0.003795328550040722, -0.0034819303546100855, -0.003168532159179449, -0.0028551339637488127, -0.0025417357683181763, -0.00222833757288754, -0.0019149393774569035, -0.001601541182026267, -0.0012881429865956306, -0.0009747447911649942, -0.0006613465957343578, -0.00034794840030372143, -3.455020487308502e-05, 0.0002788479905575514, 0.0005922461859881878, 0.0009056443814188242, 0.0012190425768494606, 0.001532440772280097, 0.0018458389677107334, 0.00215923716314137, 0.0024726353585720062, 0.0027860335540026426, 0.003099431749433279, 0.0034128299448639154, 0.003726228140294552, 0.004039626568555832, 0.004353024531155825, 0.004666422493755817, 0.0049798209220170975, 0.0052932193502783775, 0.00560661731287837, 0.005920015275478363, 0.0062334127724170685, 0.0065468112006783485, 0.006860209163278341, 0.007173607125878334, 0.007487005554139614, 0.007800403982400894, 0.0081138014793396, 0.00842719990760088, 0.00874059833586216, 0.00905399676412344, 0.00936739519238472, 0.009680792689323425, 0.009994191117584705, 0.010307589545845985, 0.01062098704278469, 0.010934385471045971, 0.011247783899307251, 0.011561182327568531, 0.011874580755829811, 0.012187978252768517, 0.012501376681029797, 0.012814775109291077, 0.013128172606229782, 0.013441571034491062, 0.013754969462752342, 0.014068367891013622, 0.014381766319274902, 0.014695163816213608, 0.015008562244474888, 0.015321960672736168, 0.015635358169674873, 0.015948757529258728, 0.016262155026197433]}, "parameters/features_extractor.network.2.weight": {"_type": "histogram", "values": [1.0, 0.0, 1.0, 0.0, 2.0, 2.0, 4.0, 5.0, 12.0, 6.0, 20.0, 29.0, 36.0, 53.0, 76.0, 119.0, 124.0, 185.0, 236.0, 311.0, 410.0, 491.0, 595.0, 758.0, 779.0, 988.0, 1067.0, 1225.0, 1502.0, 1398.0, 1504.0, 1603.0, 1726.0, 1658.0, 1672.0, 1675.0, 1629.0, 1461.0, 1400.0, 1244.0, 1126.0, 993.0, 893.0, 724.0, 641.0, 574.0, 423.0, 346.0, 260.0, 221.0, 169.0, 120.0, 76.0, 65.0, 46.0, 29.0, 21.0, 16.0, 7.0, 7.0, 2.0, 0.0, 1.0, 1.0], "bins": [-0.27166929841041565, -0.2635650038719177, -0.2554607093334198, -0.24735641479492188, -0.23925212025642395, -0.23114782571792603, -0.2230435311794281, -0.21493923664093018, -0.20683494210243225, -0.19873064756393433, -0.1906263530254364, -0.18252205848693848, -0.17441776394844055, -0.16631346940994263, -0.1582091748714447, -0.15010488033294678, -0.14200058579444885, -0.13389629125595093, -0.125791996717453, -0.11768770217895508, -0.10958340764045715, -0.10147911310195923, -0.0933748185634613, -0.08527052402496338, -0.07716622948646545, -0.06906193494796753, -0.060957640409469604, -0.05285334587097168, -0.044749051332473755, -0.03664475679397583, -0.028540462255477905, -0.02043616771697998, -0.012331843376159668, -0.004227548837661743, 0.0038767457008361816, 0.011981040239334106, 0.02008533477783203, 0.028189629316329956, 0.03629392385482788, 0.044398218393325806, 0.05250251293182373, 0.060606807470321655, 0.06871110200881958, 0.0768153965473175, 0.08491969108581543, 0.09302398562431335, 0.10112828016281128, 0.1092325747013092, 0.11733686923980713, 0.12544116377830505, 0.13354545831680298, 0.1416497528553009, 0.14975404739379883, 0.15785834193229675, 0.16596263647079468, 0.1740669310092926, 0.18217122554779053, 0.19027552008628845, 0.19837981462478638, 0.2064841091632843, 0.21458840370178223, 0.22269269824028015, 0.23079699277877808, 0.238901287317276, 0.24700558185577393]}, "parameters/features_extractor.network.2.bias": {"_type": "histogram", "values": [1.0, 1.0, 1.0, 1.0, 0.0, 2.0, 2.0, 3.0, 0.0, 3.0, 0.0, 2.0, 3.0, 0.0, 0.0, 2.0, 1.0, 0.0, 1.0, 2.0, 2.0, 2.0, 0.0, 0.0, 0.0, 0.0, 0.0, 1.0, 0.0, 0.0, 0.0, 1.0, 2.0, 1.0, 0.0, 1.0, 6.0, 1.0, 6.0, 4.0, 2.0, 2.0, 1.0, 1.0, 0.0, 0.0, 2.0, 2.0, 1.0, 0.0, 0.0, 0.0, 0.0, 0.0, 0.0, 0.0, 0.0, 0.0, 0.0, 0.0, 0.0, 0.0, 0.0, 1.0], "bins": [-0.005149043630808592, -0.004837060812860727, -0.0045250775292515755, -0.004213094711303711, -0.0039011116605252028, -0.0035891286097466946, -0.00327714579179883, -0.002965162741020322, -0.0026531796902418137, -0.0023411966394633055, -0.0020292135886847973, -0.0017172307707369328, -0.0014052477199584246, -0.0010932646691799164, -0.00078128173481673, -0.00046929880045354366, -0.00015731574967503548, 0.0001546672428958118, 0.00046665023546665907, 0.0007786332280375063, 0.0010906162206083536, 0.0014025992713868618, 0.0017145822057500482, 0.0020265651401132345, 0.0023385481908917427, 0.002650531241670251, 0.002962514292448759, 0.0032744971103966236, 0.003586480161175132, 0.00389846321195364, 0.0042104460299015045, 0.004522428847849369, 0.004834412597119808, 0.005146395415067673, 0.005458378698676825, 0.005770361516624689, 0.006082344800233841, 0.0063943276181817055, 0.00670631043612957, 0.0070182932540774345, 0.007330276537686586, 0.007642259355634451, 0.007954242639243603, 0.008266225457191467, 0.008578208275139332, 0.008890191093087196, 0.009202174842357635, 0.0095141576603055, 0.009826140478253365, 0.010138123296201229, 0.010450106114149094, 0.010762089863419533, 0.011074072681367397, 0.011386055499315262, 0.011698038317263126, 0.012010021135210991, 0.01232200488448143, 0.012633987702429295, 0.012945970520377159, 0.013257954269647598, 0.013569937087595463, 0.013881919905543327, 0.014193902723491192, 0.014505885541439056, 0.014817868359386921]}, "parameters/features_extractor.network.4.weight": {"_type": "histogram", "values": [1.0, 1.0, 1.0, 0.0, 4.0, 5.0, 7.0, 11.0, 28.0, 26.0, 37.0, 52.0, 69.0, 112.0, 166.0, 206.0, 271.0, 321.0, 424.0, 542.0, 625.0, 830.0, 924.0, 1088.0, 1265.0, 1394.0, 1589.0, 1774.0, 1780.0, 1815.0, 1968.0, 1937.0, 1967.0, 1890.0, 1848.0, 1730.0, 1621.0, 1384.0, 1316.0, 1089.0, 999.0, 826.0, 616.0, 549.0, 416.0, 357.0, 282.0, 211.0, 148.0, 109.0, 67.0, 67.0, 40.0, 19.0, 8.0, 11.0, 8.0, 2.0, 5.0, 4.0, 1.0, 0.0, 0.0, 1.0], "bins": [-0.24840958416461945, -0.24052569270133972, -0.2326418161392212, -0.22475793957710266, -0.21687404811382294, -0.2089901566505432, -0.20110628008842468, -0.19322240352630615, -0.18533851206302643, -0.1774546205997467, -0.16957074403762817, -0.16168686747550964, -0.15380297601222992, -0.1459190845489502, -0.13803520798683167, -0.13015133142471313, -0.12226743996143341, -0.11438355594873428, -0.10649967193603516, -0.09861578792333603, -0.0907319039106369, -0.08284801989793777, -0.07496413588523865, -0.06708025187253952, -0.05919636785984039, -0.051312483847141266, -0.04342859983444214, -0.03554471582174301, -0.027660831809043884, -0.019776947796344757, -0.01189306378364563, -0.004009179770946503, 0.0038747191429138184, 0.011758603155612946, 0.019642487168312073, 0.0275263711810112, 0.03541025519371033, 0.043294139206409454, 0.05117802321910858, 0.05906190723180771, 0.06694579124450684, 0.07482967525720596, 0.08271355926990509, 0.09059744328260422, 0.09848132729530334, 0.10636521130800247, 0.1142490953207016, 0.12213297933340073, 0.13001686334609985, 0.13790073990821838, 0.1457846313714981, 0.15366852283477783, 0.16155239939689636, 0.1694362759590149, 0.17732016742229462, 0.18520405888557434, 0.19308793544769287, 0.2009718120098114, 0.20885570347309113, 0.21673959493637085, 0.22462347149848938, 0.2325073480606079, 0.24039123952388763, 0.24827513098716736, 0.2561590075492859]}, "parameters/features_extractor.network.4.bias": {"_type": "histogram", "values": [2.0, 0.0, 0.0, 1.0, 1.0, 0.0, 0.0, 1.0, 2.0, 1.0, 1.0, 3.0, 4.0, 4.0, 2.0, 4.0, 2.0, 6.0, 0.0, 0.0, 1.0, 0.0, 1.0, 1.0, 1.0, 0.0, 0.0, 0.0, 0.0, 1.0, 0.0, 1.0, 0.0, 2.0, 1.0, 2.0, 1.0, 0.0, 2.0, 0.0, 1.0, 0.0, 1.0, 1.0, 2.0, 1.0, 0.0, 1.0, 1.0, 0.0, 4.0, 1.0, 0.0, 0.0, 1.0, 1.0, 0.0, 0.0, 0.0, 0.0, 0.0, 0.0, 0.0, 1.0], "bins": [-0.005511850584298372, -0.005269801709800959, -0.005027752835303545, -0.004785704426467419, -0.004543655551970005, -0.004301606677472591, -0.004059557802975178, -0.003817508928477764, -0.003575460286810994, -0.0033334114123135805, -0.0030913627706468105, -0.002849313896149397, -0.0026072650216519833, -0.0023652163799852133, -0.0021231675054877996, -0.0018811187474057078, -0.001639069989323616, -0.0013970212312415242, -0.0011549724731594324, -0.0009129235986620188, -0.000670874840579927, -0.00042882608249783516, -0.00018677720800042152, 5.5271550081670284e-05, 0.00029732054099440575, 0.0005393692990764976, 0.0007814181153662503, 0.001023466931656003, 0.0012655156897380948, 0.0015075644478201866, 0.0017496133223176003, 0.001991662196815014, 0.0022337110713124275, 0.002475759945809841, 0.002717808587476611, 0.0029598574619740248, 0.0032019061036407948, 0.0034439549781382084, 0.003686003852635622, 0.003928052727133036, 0.004170101135969162, 0.004412150010466576, 0.004654198884963989, 0.004896247759461403, 0.005138296168297529, 0.005380345042794943, 0.0056223939172923565, 0.00586444279178977, 0.006106491666287184, 0.006348540540784597, 0.006590589415282011, 0.006832637824118137, 0.007074686698615551, 0.007316735573112965, 0.007558784447610378, 0.007800833322107792, 0.008042882196605206, 0.00828493107110262, 0.008526979945600033, 0.008769028820097446, 0.00901107769459486, 0.009253125637769699, 0.009495174512267113, 0.009737223386764526, 0.00997927226126194]}, "parameters/features_extractor.network.6.weight": {"_type": "histogram", "values": [1.0, 0.0, 0.0, 0.0, 1.0, 0.0, 0.0, 3.0, 3.0, 1.0, 1.0, 4.0, 6.0, 4.0, 5.0, 9.0, 9.0, 17.0, 15.0, 9.0, 15.0, 19.0, 24.0, 29.0, 21.0, 27.0, 25.0, 40.0, 35.0, 39.0, 36.0, 40.0, 38.0, 39.0, 35.0, 57.0, 50.0, 30.0, 38.0, 39.0, 34.0, 22.0, 19.0, 23.0, 20.0, 23.0, 24.0, 18.0, 13.0, 16.0, 8.0, 7.0, 4.0, 4.0, 6.0, 5.0, 3.0, 5.0, 1.0, 3.0, 0.0, 0.0, 0.0, 2.0], "bins": [-0.5943377017974854, -0.5766074657440186, -0.5588772296905518, -0.5411469340324402, -0.5234166979789734, -0.5056864619255066, -0.4879562258720398, -0.470225989818573, -0.4524957239627838, -0.434765487909317, -0.41703522205352783, -0.39930498600006104, -0.38157474994659424, -0.36384448409080505, -0.34611424803733826, -0.3283839821815491, -0.3106537461280823, -0.2929235100746155, -0.2751932442188263, -0.2574630081653595, -0.2397327572107315, -0.22200250625610352, -0.20427227020263672, -0.18654201924800873, -0.16881176829338074, -0.15108151733875275, -0.13335126638412476, -0.11562103033065796, -0.09789077937602997, -0.08016052842140198, -0.062430284917354584, -0.04470004141330719, -0.0269697904586792, -0.009239543229341507, 0.008490703999996185, 0.026220951229333878, 0.04395119845867157, 0.06168144941329956, 0.07941169291734695, 0.09714193642139435, 0.11487218737602234, 0.13260243833065033, 0.15033268928527832, 0.16806292533874512, 0.1857931762933731, 0.2035234272480011, 0.2212536633014679, 0.2389839142560959, 0.2567141652107239, 0.2744444012641907, 0.29217466711997986, 0.30990490317344666, 0.32763516902923584, 0.34536540508270264, 0.36309564113616943, 0.38082587718963623, 0.3985561430454254, 0.4162863790988922, 0.4340166449546814, 0.4517468810081482, 0.469477117061615, 0.4872073829174042, 0.5049376487731934, 0.5226678848266602, 0.540398120880127]}, "parameters/features_extractor.network.6.bias": {"_type": "histogram", "values": [1.0, 1.0, 0.0, 0.0, 0.0, 1.0, 0.0, 0.0, 0.0, 0.0, 0.0, 0.0, 0.0, 0.0, 0.0, 1.0, 0.0, 0.0, 0.0, 0.0, 1.0, 0.0, 0.0, 0.0, 0.0, 0.0, 0.0, 0.0, 0.0, 0.0, 0.0, 0.0, 0.0, 0.0, 0.0, 0.0, 1.0, 0.0, 0.0, 0.0, 0.0, 1.0, 1.0, 1.0, 1.0, 1.0, 2.0, 0.0, 0.0, 0.0, 1.0, 0.0, 0.0, 0.0, 0.0, 0.0, 0.0, 0.0, 0.0, 1.0, 0.0, 0.0, 0.0, 1.0], "bins": [-0.0020445978734642267, -0.0018958792788907886, -0.0017471606843173504, -0.001598442206159234, -0.0014497236115857959, -0.0013010050170123577, -0.0011522865388542414, -0.0010035679442808032, -0.000854849349707365, -0.0007061307551339269, -0.0005574122187681496, -0.0004086936532985419, -0.0002599750878289342, -0.00011125649325549603, 3.746204311028123e-05, 0.00018618057947605848, 0.00033489917404949665, 0.00048361773951910436, 0.0006323363049887121, 0.0007810548413544893, 0.0009297734359279275, 0.0010784920305013657, 0.001227210508659482, 0.0013759291032329202, 0.0015246476978063583, 0.0016733662923797965, 0.0018220848869532347, 0.001970803365111351, 0.002119522076100111, 0.0022682405542582273, 0.0024169590324163437, 0.0025656777434051037, 0.0027143959887325764, 0.0028631144668906927, 0.0030118331778794527, 0.003160551656037569, 0.003309270367026329, 0.0034579888451844454, 0.0036067073233425617, 0.0037554260343313217, 0.003904144512489438, 0.004052862990647554, 0.004201581701636314, 0.004350300412625074, 0.004499018657952547, 0.004647737368941307, 0.004796456079930067, 0.00494517432525754, 0.0050938930362463, 0.00524261174723506, 0.005391329992562532, 0.005540048703551292, 0.005688767414540052, 0.005837486125528812, 0.005986204370856285, 0.006134923081845045, 0.006283641792833805, 0.006432360503822565, 0.006581078749150038, 0.006729797460138798, 0.006878516171127558, 0.007027234882116318, 0.0071759531274437904, 0.00732467183843255, 0.007473390083760023]}, "parameters/features_extractor.network.9.weight": {"_type": "histogram", "values": [1.0, 0.0, 1.0, 0.0, 0.0, 3.0, 1.0, 4.0, 12.0, 17.0, 29.0, 48.0, 79.0, 99.0, 177.0, 229.0, 398.0, 584.0, 778.0, 1115.0, 1484.0, 1929.0, 2527.0, 3202.0, 3959.0, 4848.0, 5858.0, 6816.0, 7762.0, 8598.0, 9655.0, 10157.0, 10802.0, 11288.0, 11377.0, 11356.0, 10796.0, 10321.0, 9650.0, 8935.0, 8085.0, 6856.0, 6003.0, 4949.0, 4044.0, 3427.0, 2702.0, 2053.0, 1565.0, 1125.0, 804.0, 605.0, 424.0, 290.0, 198.0, 133.0, 73.0, 49.0, 30.0, 13.0, 12.0, 8.0, 5.0, 4.0], "bins": [-0.25117895007133484, -0.24392347037792206, -0.23666797578334808, -0.2294124960899353, -0.22215700149536133, -0.21490152180194855, -0.20764604210853577, -0.2003905475139618, -0.193135067820549, -0.18587958812713623, -0.17862409353256226, -0.17136861383914948, -0.1641131341457367, -0.15685763955116272, -0.14960215985774994, -0.14234668016433716, -0.13509118556976318, -0.1278357058763504, -0.12058021128177643, -0.11332473158836365, -0.10606924444437027, -0.09881375730037689, -0.09155827760696411, -0.08430279046297073, -0.07704730331897736, -0.06979181617498398, -0.0625363290309906, -0.05528084933757782, -0.04802536219358444, -0.040769875049591064, -0.033514391630887985, -0.026258908212184906, -0.019003406167030334, -0.011747920885682106, -0.0044924356043338776, 0.002763049677014351, 0.01001853495836258, 0.017274022102355957, 0.024529505521059036, 0.031784988939762115, 0.03904047608375549, 0.04629596322774887, 0.05355144664645195, 0.06080693006515503, 0.06806241720914841, 0.07531790435314178, 0.08257338404655457, 0.08982887119054794, 0.09708435833454132, 0.1043398454785347, 0.11159533262252808, 0.11885081231594086, 0.12610629200935364, 0.1333617866039276, 0.1406172662973404, 0.14787274599075317, 0.15512824058532715, 0.16238372027873993, 0.1696392148733139, 0.17689469456672668, 0.18415018916130066, 0.19140566885471344, 0.19866114854812622, 0.2059166431427002, 0.21317212283611298]}, "parameters/features_extractor.network.9.bias": {"_type": "histogram", "values": [1.0, 0.0, 1.0, 1.0, 0.0, 0.0, 0.0, 2.0, 4.0, 2.0, 2.0, 6.0, 3.0, 5.0, 5.0, 5.0, 15.0, 11.0, 10.0, 12.0, 8.0, 3.0, 7.0, 7.0, 5.0, 5.0, 4.0, 5.0, 1.0, 2.0, 1.0, 1.0, 1.0, 0.0, 4.0, 3.0, 2.0, 1.0, 4.0, 4.0, 1.0, 2.0, 5.0, 4.0, 10.0, 9.0, 8.0, 7.0, 8.0, 4.0, 5.0, 12.0, 7.0, 6.0, 2.0, 2.0, 2.0, 2.0, 1.0, 0.0, 0.0, 1.0, 0.0, 2.0], "bins": [-0.004952891729772091, -0.004803616087883711, -0.004654340911656618, -0.004505065269768238, -0.004355790093541145, -0.004206514451652765, -0.004057238809764385, -0.0039079636335372925, -0.0037586879916489124, -0.003609412582591176, -0.0034601371735334396, -0.0033108615316450596, -0.003161586122587323, -0.003012310713529587, -0.0028630350716412067, -0.0027137596625834703, -0.002564484253525734, -0.0024152088444679976, -0.002265933435410261, -0.002116657793521881, -0.0019673823844641447, -0.0018181069754064083, -0.00166883144993335, -0.0015195559244602919, -0.0013702805154025555, -0.001221005106344819, -0.0010717295808717608, -0.0009224541136063635, -0.0007731786463409662, -0.0006239031790755689, -0.0004746277118101716, -0.0003253521863371134, -0.00017607631161808968, -2.6800844352692366e-05, 0.00012247462291270494, 0.00027175009017810225, 0.00042102555744349957, 0.0005703010247088969, 0.0007195764919742942, 0.0008688520174473524, 0.0010181274265050888, 0.0011674028355628252, 0.0013166783610358834, 0.0014659538865089417, 0.001615229295566678, 0.0017645047046244144, 0.0019137802300974727, 0.002063055755570531, 0.0022123311646282673, 0.0023616065736860037, 0.00251088198274374, 0.00266015762463212, 0.0028094330336898565, 0.002958708442747593, 0.003107984084635973, 0.0032572594936937094, 0.0034065349027514458, 0.003555810311809182, 0.0037050857208669186, 0.0038543613627552986, 0.004003636538982391, 0.004152912180870771, 0.0043021878227591515, 0.004451462998986244, 0.004600738640874624]}, "parameters/mlp_extractor.policy_net.0.weight": {"_type": "histogram", "values": [3.0, 1.0, 0.0, 2.0, 1.0, 9.0, 8.0, 14.0, 16.0, 20.0, 30.0, 46.0, 52.0, 78.0, 95.0, 122.0, 156.0, 193.0, 216.0, 260.0, 288.0, 361.0, 425.0, 509.0, 491.0, 566.0, 650.0, 663.0, 730.0, 736.0, 800.0, 792.0, 768.0, 817.0, 724.0, 735.0, 673.0, 636.0, 566.0, 503.0, 444.0, 408.0, 307.0, 313.0, 234.0, 214.0, 163.0, 144.0, 95.0, 73.0, 67.0, 44.0, 36.0, 24.0, 15.0, 17.0, 10.0, 8.0, 4.0, 2.0, 2.0, 1.0, 1.0, 3.0], "bins": [-0.33719366788864136, -0.3265930712223053, -0.31599247455596924, -0.3053918778896332, -0.2947912812232971, -0.28419068455696106, -0.273590087890625, -0.26298949122428894, -0.2523888945579529, -0.24178829789161682, -0.23118770122528076, -0.2205871045589447, -0.20998650789260864, -0.19938591122627258, -0.18878531455993652, -0.17818471789360046, -0.1675841212272644, -0.15698352456092834, -0.14638292789459229, -0.13578233122825623, -0.12518173456192017, -0.1145811378955841, -0.10398054122924805, -0.09337994456291199, -0.08277934789657593, -0.07217875123023987, -0.06157815456390381, -0.05097755789756775, -0.04037696123123169, -0.02977636456489563, -0.01917576789855957, -0.00857517123222351, 0.002025395631790161, 0.01262599229812622, 0.02322658896446228, 0.03382718563079834, 0.0444277822971344, 0.05502837896347046, 0.06562897562980652, 0.07622957229614258, 0.08683016896247864, 0.0974307656288147, 0.10803136229515076, 0.11863195896148682, 0.12923255562782288, 0.13983315229415894, 0.150433748960495, 0.16103434562683105, 0.17163494229316711, 0.18223553895950317, 0.19283613562583923, 0.2034367322921753, 0.21403732895851135, 0.2246379256248474, 0.23523852229118347, 0.24583911895751953, 0.2564397156238556, 0.26704031229019165, 0.2776409089565277, 0.28824150562286377, 0.29884210228919983, 0.3094426989555359, 0.32004329562187195, 0.330643892288208, 0.34124448895454407]}, "parameters/mlp_extractor.policy_net.0.bias": {"_type": "histogram", "values": [1.0, 0.0, 0.0, 1.0, 0.0, 0.0, 1.0, 0.0, 1.0, 0.0, 0.0, 0.0, 0.0, 1.0, 0.0, 0.0, 0.0, 2.0, 1.0, 1.0, 0.0, 0.0, 2.0, 0.0, 0.0, 1.0, 1.0, 1.0, 1.0, 1.0, 1.0, 3.0, 2.0, 6.0, 15.0, 3.0, 3.0, 3.0, 3.0, 1.0, 0.0, 2.0, 0.0, 0.0, 1.0, 0.0, 0.0, 1.0, 1.0, 0.0, 0.0, 1.0, 0.0, 0.0, 1.0, 0.0, 0.0, 0.0, 0.0, 0.0, 0.0, 0.0, 0.0, 1.0], "bins": [-0.0007594036287628114, -0.0007372006657533348, -0.0007149977027438581, -0.0006927947397343814, -0.0006705917767249048, -0.0006483888137154281, -0.0006261859089136124, -0.0006039829459041357, -0.000581779982894659, -0.0005595770198851824, -0.0005373740568757057, -0.0005151710938662291, -0.0004929681308567524, -0.00047076516784727573, -0.00044856223394162953, -0.00042635927093215287, -0.00040415627881884575, -0.0003819533158093691, -0.0003597503527998924, -0.00033754738979041576, -0.0003153444267809391, -0.00029314146377146244, -0.00027093852986581624, -0.0002487355668563396, -0.00022653263295069337, -0.0002043296699412167, -0.00018212670693174005, -0.0001599237584741786, -0.00013772079546470195, -0.00011551783245522529, -9.331488399766386e-05, -7.11119209881872e-05, -4.890887066721916e-05, -2.6705911295721307e-05, -4.502951924223453e-06, 1.7700003809295595e-05, 3.9902966818772256e-05, 6.210592982824892e-05, 8.430887828581035e-05, 0.00010651184129528701, 0.00012871483340859413, 0.0001509177964180708, 0.00017312075942754745, 0.0001953237078851089, 0.00021752667089458555, 0.0002397296339040622, 0.00026193258236162364, 0.0002841355453711003, 0.0003063384792767465, 0.0003285414422862232, 0.00035074440529569983, 0.0003729473683051765, 0.00039515033131465316, 0.0004173532943241298, 0.000439556228229776, 0.0004617591912392527, 0.00048396215424872935, 0.0005061650881543756, 0.0005283680511638522, 0.0005505710141733289, 0.0005727739771828055, 0.0005949769401922822, 0.0006171799032017589, 0.0006393828662112355, 0.0006615858292207122]}, "parameters/mlp_extractor.policy_net.2.weight": {"_type": "histogram", "values": [1.0, 1.0, 1.0, 0.0, 4.0, 2.0, 8.0, 14.0, 9.0, 10.0, 20.0, 16.0, 22.0, 21.0, 43.0, 40.0, 53.0, 70.0, 76.0, 69.0, 90.0, 113.0, 128.0, 138.0, 131.0, 129.0, 151.0, 154.0, 144.0, 182.0, 179.0, 182.0, 179.0, 151.0, 136.0, 152.0, 163.0, 142.0, 116.0, 121.0, 106.0, 90.0, 90.0, 71.0, 69.0, 65.0, 42.0, 37.0, 31.0, 30.0, 27.0, 17.0, 15.0, 11.0, 10.0, 7.0, 6.0, 2.0, 4.0, 1.0, 0.0, 3.0, 0.0, 1.0], "bins": [-0.5778563618659973, -0.5592403411865234, -0.5406243205070496, -0.5220082998275757, -0.5033922791481018, -0.4847762882709503, -0.46616026759147644, -0.44754427671432495, -0.4289282560348511, -0.4103122353553772, -0.3916962146759033, -0.37308019399642944, -0.35446420311927795, -0.3358481824398041, -0.3172321617603302, -0.2986161708831787, -0.28000012040138245, -0.26138409972190857, -0.2427680939435959, -0.224152073264122, -0.20553606748580933, -0.18692004680633545, -0.16830402612686157, -0.1496880203485489, -0.13107198476791382, -0.11245597153902054, -0.09383995831012726, -0.07522393763065338, -0.0566079244017601, -0.03799191117286682, -0.019375890493392944, -0.0007598847150802612, 0.017856121063232422, 0.0364721342921257, 0.05508815124630928, 0.07370416820049286, 0.09232018142938614, 0.11093619465827942, 0.1295522153377533, 0.14816822111606598, 0.16678422689437866, 0.18540024757385254, 0.20401625335216522, 0.2226322740316391, 0.24124827980995178, 0.25986430048942566, 0.27848032116889954, 0.297096312046051, 0.3157123625278473, 0.33432838320732117, 0.35294440388679504, 0.37156039476394653, 0.3901764154434204, 0.4087924361228943, 0.42740845680236816, 0.44602447748184204, 0.4646404981613159, 0.4832565188407898, 0.5018725395202637, 0.5204885601997375, 0.5391045808792114, 0.5577205419540405, 0.5763366222381592, 0.5949525833129883, 0.6135686039924622]}, "parameters/mlp_extractor.policy_net.2.bias": {"_type": "histogram", "values": [1.0, 0.0, 0.0, 0.0, 2.0, 0.0, 1.0, 0.0, 0.0, 1.0, 0.0, 0.0, 0.0, 2.0, 0.0, 0.0, 2.0, 3.0, 1.0, 0.0, 2.0, 1.0, 2.0, 2.0, 6.0, 6.0, 7.0, 8.0, 3.0, 1.0, 0.0, 1.0, 1.0, 0.0, 3.0, 2.0, 0.0, 0.0, 2.0, 1.0, 0.0, 0.0, 1.0, 0.0, 0.0, 0.0, 0.0, 0.0, 1.0, 0.0, 0.0, 0.0, 0.0, 0.0, 0.0, 0.0, 0.0, 0.0, 0.0, 0.0, 0.0, 0.0, 0.0, 1.0], "bins": [-0.0006302488618530333, -0.000605988665483892, -0.0005817285273224115, -0.0005574683309532702, -0.0005332081345841289, -0.0005089479964226484, -0.0004846878000535071, -0.00046042760368436575, -0.00043616743641905487, -0.000411907269153744, -0.00038764707278460264, -0.00036338690551929176, -0.0003391267382539809, -0.00031486654188483953, -0.00029060637461952865, -0.00026634620735421777, -0.00024208601098507643, -0.00021782582916785032, -0.0001935656473506242, -0.00016930548008531332, -0.0001450452982680872, -0.0001207851164508611, -9.652494918555021e-05, -7.22647673683241e-05, -4.8004614654928446e-05, -2.374443647568114e-05, 5.157417035661638e-07, 2.477591624483466e-05, 4.903609806206077e-05, 7.329627987928689e-05, 9.755644714459777e-05, 0.00012181662896182388, 0.00014607683988288045, 0.00017033702170010656, 0.00019459720351733267, 0.00021885737078264356, 0.00024311755259986967, 0.0002673777344170958, 0.00029163790168240666, 0.000315898098051548, 0.00034015829442068934, 0.00036441846168600023, 0.00038867865805514157, 0.00041293882532045245, 0.0004371990216895938, 0.0004614591889549047, 0.00048571935622021556, 0.0005099795525893569, 0.0005342396907508373, 0.0005584998871199787, 0.0005827600252814591, 0.0006070202216506004, 0.0006312804180197418, 0.0006555406143888831, 0.0006798007525503635, 0.0007040609489195049, 0.0007283211452886462, 0.0007525813416577876, 0.000776841479819268, 0.0008011016761884093, 0.0008253618725575507, 0.000849622068926692, 0.0008738822070881724, 0.0008981424034573138, 0.0009224025416187942]}, "parameters/mlp_extractor.value_net.0.weight": {"_type": "histogram", "values": [1.0, 1.0, 0.0, 4.0, 2.0, 5.0, 11.0, 6.0, 15.0, 19.0, 38.0, 48.0, 45.0, 63.0, 104.0, 112.0, 138.0, 183.0, 232.0, 245.0, 320.0, 336.0, 395.0, 461.0, 529.0, 594.0, 622.0, 604.0, 695.0, 701.0, 765.0, 709.0, 724.0, 774.0, 737.0, 692.0, 642.0, 613.0, 609.0, 577.0, 484.0, 413.0, 382.0, 330.0, 239.0, 235.0, 199.0, 170.0, 123.0, 109.0, 73.0, 58.0, 51.0, 45.0, 25.0, 26.0, 16.0, 13.0, 12.0, 5.0, 0.0, 2.0, 2.0, 1.0], "bins": [-0.33047449588775635, -0.32023289799690247, -0.30999132990837097, -0.2997497320175171, -0.2895081639289856, -0.2792665660381317, -0.2690249979496002, -0.25878340005874634, -0.24854181706905365, -0.23830023407936096, -0.22805865108966827, -0.21781706809997559, -0.2075754702091217, -0.1973339021205902, -0.18709230422973633, -0.17685072124004364, -0.16660913825035095, -0.15636755526065826, -0.14612597227096558, -0.1358843892812729, -0.1256428062915802, -0.11540121585130692, -0.10515962541103363, -0.09491804242134094, -0.08467645943164825, -0.07443487644195557, -0.06419329345226288, -0.053951703011989594, -0.043710120022296906, -0.03346853703260422, -0.02322695031762123, -0.012985363602638245, -0.0027438104152679443, 0.007497774437069893, 0.01773935928940773, 0.027980944141745567, 0.038222528994083405, 0.04846411198377609, 0.05870569869875908, 0.06894728541374207, 0.07918886840343475, 0.08943045139312744, 0.09967203438282013, 0.10991362482309341, 0.1201552078127861, 0.1303967833518982, 0.14063838124275208, 0.15087996423244476, 0.16112154722213745, 0.17136313021183014, 0.18160471320152283, 0.19184629619121552, 0.2020878791809082, 0.21232947707176208, 0.22257106006145477, 0.23281264305114746, 0.24305422604084015, 0.25329580903053284, 0.2635374069213867, 0.2737789750099182, 0.2840205729007721, 0.2942621409893036, 0.30450373888015747, 0.31474530696868896, 0.32498690485954285]}, "parameters/mlp_extractor.value_net.0.bias": {"_type": "histogram", "values": [1.0, 0.0, 0.0, 0.0, 0.0, 0.0, 0.0, 0.0, 0.0, 0.0, 0.0, 0.0, 0.0, 0.0, 0.0, 0.0, 0.0, 0.0, 0.0, 0.0, 1.0, 1.0, 0.0, 3.0, 2.0, 0.0, 3.0, 4.0, 2.0, 4.0, 2.0, 2.0, 1.0, 3.0, 1.0, 0.0, 0.0, 0.0, 0.0, 0.0, 0.0, 0.0, 0.0, 1.0, 1.0, 1.0, 1.0, 1.0, 1.0, 1.0, 1.0, 5.0, 0.0, 2.0, 5.0, 3.0, 1.0, 3.0, 1.0, 0.0, 1.0, 1.0, 1.0, 3.0], "bins": [-0.007572605740278959, -0.007391356863081455, -0.0072101084515452385, -0.0070288595743477345, -0.006847611162811518, -0.006666362285614014, -0.006485113874077797, -0.006303864996880293, -0.006122616119682789, -0.005941367242485285, -0.005760118830949068, -0.005578869953751564, -0.005397621542215347, -0.005216372665017843, -0.005035123787820339, -0.0048538753762841225, -0.004672626964747906, -0.004491378087550402, -0.004310129676014185, -0.004128880798816681, -0.003947632387280464, -0.00376638351008296, -0.0035851348657160997, -0.0034038862213492393, -0.0032226373441517353, -0.003041388699784875, -0.0028601400554180145, -0.0026788911782205105, -0.00249764253385365, -0.0023163938894867897, -0.0021351452451199293, -0.001953896600753069, -0.0017726477235555649, -0.0015913990791887045, -0.0014101503184065223, -0.0012289016740396619, -0.0010476529132574797, -0.0008664042688906193, -0.0006851556245237589, -0.0005039068637415767, -0.00032265810295939445, -0.00014140941493678838, 3.9839273085817695e-05, 0.00022108794655650854, 0.00040233664913102984, 0.0005835853517055511, 0.0007648339960724115, 0.0009460827568545938, 0.0011273312848061323, 0.0013085799291729927, 0.001489828689955175, 0.0016710773343220353, 0.0018523260951042175, 0.002033574739471078, 0.0022148233838379383, 0.0023960722610354424, 0.002577320672571659, 0.0027585693169385195, 0.00293981796130538, 0.003121066838502884, 0.0033023154828697443, 0.0034835641272366047, 0.003664812771603465, 0.0038460614159703255, 0.0040273102931678295]}, "parameters/mlp_extractor.value_net.2.weight": {"_type": "histogram", "values": [1.0, 2.0, 1.0, 1.0, 5.0, 4.0, 6.0, 7.0, 10.0, 15.0, 11.0, 20.0, 25.0, 32.0, 46.0, 45.0, 53.0, 64.0, 87.0, 74.0, 90.0, 93.0, 117.0, 124.0, 125.0, 137.0, 161.0, 147.0, 159.0, 196.0, 171.0, 193.0, 165.0, 153.0, 156.0, 119.0, 160.0, 120.0, 124.0, 105.0, 120.0, 95.0, 91.0, 85.0, 66.0, 63.0, 41.0, 45.0, 38.0, 25.0, 22.0, 22.0, 14.0, 7.0, 11.0, 3.0, 4.0, 2.0, 4.0, 5.0, 4.0, 3.0, 0.0, 2.0], "bins": [-0.5863320827484131, -0.5675848126411438, -0.5488375425338745, -0.5300902128219604, -0.5113429427146912, -0.4925956726074219, -0.4738483726978302, -0.4551010727882385, -0.43635380268096924, -0.41760653257369995, -0.3988592326641083, -0.3801119327545166, -0.3613646626472473, -0.342617392539978, -0.32387009263038635, -0.3051227927207947, -0.2863755226135254, -0.2676282525062561, -0.24888095259666443, -0.23013366758823395, -0.21138638257980347, -0.19263909757137299, -0.1738918125629425, -0.15514452755451202, -0.13639724254608154, -0.11764995753765106, -0.09890267252922058, -0.0801553875207901, -0.06140810251235962, -0.04266081750392914, -0.023913532495498657, -0.005166247487068176, 0.013581037521362305, 0.032328322529792786, 0.05107560753822327, 0.06982289254665375, 0.08857017755508423, 0.10731746256351471, 0.1260647475719452, 0.14481203258037567, 0.16355931758880615, 0.18230660259723663, 0.20105388760566711, 0.2198011726140976, 0.23854845762252808, 0.25729572772979736, 0.27604302763938904, 0.2947903275489807, 0.31353759765625, 0.3322848677635193, 0.35103216767311096, 0.36977946758270264, 0.3885267376899719, 0.4072740077972412, 0.4260213077068329, 0.44476860761642456, 0.46351587772369385, 0.48226314783096313, 0.5010104179382324, 0.5197577476501465, 0.5385050177574158, 0.5572522878646851, 0.5759996175765991, 0.5947468876838684, 0.6134941577911377]}, "parameters/mlp_extractor.value_net.2.bias": {"_type": "histogram", "values": [1.0, 0.0, 1.0, 0.0, 1.0, 1.0, 0.0, 2.0, 0.0, 2.0, 2.0, 2.0, 4.0, 1.0, 4.0, 2.0, 1.0, 2.0, 0.0, 0.0, 0.0, 1.0, 1.0, 1.0, 0.0, 0.0, 0.0, 1.0, 0.0, 0.0, 1.0, 0.0, 0.0, 0.0, 0.0, 0.0, 0.0, 0.0, 1.0, 0.0, 1.0, 0.0, 0.0, 1.0, 0.0, 1.0, 1.0, 2.0, 1.0, 0.0, 5.0, 0.0, 3.0, 3.0, 4.0, 3.0, 1.0, 2.0, 0.0, 2.0, 0.0, 0.0, 1.0, 1.0], "bins": [-0.034216638654470444, -0.033171117305755615, -0.03212559595704079, -0.031080074608325958, -0.03003455325961113, -0.0289890319108963, -0.027943510562181473, -0.026897989213466644, -0.025852467864751816, -0.024806946516036987, -0.02376142516732216, -0.02271590381860733, -0.021670382469892502, -0.020624861121177673, -0.019579339772462845, -0.018533818423748016, -0.01748829521238804, -0.01644277386367321, -0.015397252514958382, -0.014351731166243553, -0.013306209817528725, -0.012260688468813896, -0.011215166188776493, -0.010169644840061665, -0.009124122560024261, -0.008078601211309433, -0.0070330798625946045, -0.005987558048218489, -0.00494203669950366, -0.0038965153507888317, -0.002850993536412716, -0.0018054721876978874, -0.0007599517703056335, 0.0002855696948245168, 0.001331091159954667, 0.0023766127415001392, 0.0034221340902149677, 0.004467655438929796, 0.005513177253305912, 0.0065586986020207405, 0.007604219019412994, 0.008649740368127823, 0.009695261716842651, 0.01074078306555748, 0.011786304414272308, 0.012831825762987137, 0.01387734804302454, 0.014922869391739368, 0.01596839167177677, 0.0170139130204916, 0.01805943436920643, 0.019104955717921257, 0.020150477066636086, 0.021195998415350914, 0.02224152162671089, 0.02328704297542572, 0.02433256432414055, 0.025378085672855377, 0.026423607021570206, 0.027469128370285034, 0.028514649718999863, 0.02956017106771469, 0.03060569241642952, 0.03165121376514435, 0.03269673511385918]}, "parameters/action_net.weight": {"_type": "histogram", "values": [1.0, 0.0, 1.0, 0.0, 0.0, 1.0, 0.0, 0.0, 0.0, 1.0, 1.0, 1.0, 1.0, 0.0, 0.0, 1.0, 1.0, 0.0, 0.0, 1.0, 1.0, 0.0, 2.0, 3.0, 7.0, 12.0, 10.0, 10.0, 12.0, 18.0, 23.0, 19.0, 11.0, 14.0, 7.0, 7.0, 4.0, 0.0, 3.0, 2.0, 3.0, 3.0, 2.0, 0.0, 0.0, 0.0, 0.0, 1.0, 0.0, 0.0, 1.0, 2.0, 0.0, 0.0, 1.0, 1.0, 0.0, 1.0, 0.0, 0.0, 1.0, 0.0, 0.0, 1.0], "bins": [-0.01505926065146923, -0.014561870135366917, -0.014064479619264603, -0.013567090034484863, -0.01306969951838255, -0.012572309002280235, -0.012074918486177921, -0.011577527970075607, -0.011080138385295868, -0.010582747869193554, -0.01008535735309124, -0.0095879677683115, -0.009090577252209187, -0.008593186736106873, -0.008095796220004559, -0.007598405703902245, -0.007101015187799931, -0.006603624671697617, -0.00610623462125659, -0.005608844105154276, -0.005111454054713249, -0.004614063538610935, -0.004116673022508621, -0.003619282739236951, -0.0031218919903039932, -0.002624501707032323, -0.0021271114237606525, -0.0016297209076583385, -0.0011323306243866682, -0.0006349403411149979, -0.00013754982501268387, 0.0003598404582589865, 0.0008572302758693695, 0.0013546205591410398, 0.001852010958828032, 0.002349401358515024, 0.0028467916417866945, 0.003344181925058365, 0.003841572441160679, 0.004338962957262993, 0.004836352542042732, 0.005333743058145046, 0.005831133108586073, 0.006328523624688387, 0.006825913675129414, 0.007323304191231728, 0.007820694707334042, 0.008318085223436356, 0.00881547573953867, 0.009312866255640984, 0.009810256771743298, 0.010307647287845612, 0.010805036872625351, 0.011302427388727665, 0.011799817904829979, 0.012297208420932293, 0.012794598937034607, 0.013291989453136921, 0.013789379969239235, 0.014286769554018974, 0.014784160070121288, 0.015281550586223602, 0.01577894017100334, 0.01627633161842823, 0.01677372120320797]}, "parameters/action_net.bias": {"_type": "histogram", "values": [1.0, 0.0, 0.0, 0.0, 0.0, 0.0, 0.0, 0.0, 0.0, 0.0, 0.0, 0.0, 0.0, 0.0, 0.0, 0.0, 0.0, 0.0, 0.0, 0.0, 0.0, 0.0, 0.0, 0.0, 0.0, 0.0, 0.0, 0.0, 0.0, 0.0, 0.0, 0.0, 0.0, 0.0, 0.0, 0.0, 0.0, 0.0, 0.0, 0.0, 0.0, 0.0, 0.0, 0.0, 0.0, 0.0, 0.0, 0.0, 0.0, 0.0, 0.0, 0.0, 0.0, 0.0, 0.0, 0.0, 0.0, 0.0, 0.0, 0.0, 0.0, 0.0, 0.0, 2.0], "bins": [-0.00038130214670673013, -0.00037034176057204604, -0.0003593813453335315, -0.00034842093009501696, -0.00033746054396033287, -0.0003265001578256488, -0.00031553974258713424, -0.0003045793273486197, -0.0002936189412139356, -0.00028265855507925153, -0.000271698139840737, -0.00026073772460222244, -0.00024977733846753836, -0.00023881693778093904, -0.00022785653709433973, -0.00021689613640774041, -0.0002059357357211411, -0.00019497533503454179, -0.00018401493434794247, -0.00017305453366134316, -0.00016209413297474384, -0.00015113373228814453, -0.00014017333160154521, -0.0001292129309149459, -0.00011825253022834659, -0.00010729212954174727, -9.633172885514796e-05, -8.537132816854864e-05, -7.441092748194933e-05, -6.345052679535002e-05, -5.24901261087507e-05, -4.152972542215139e-05, -3.056932473555207e-05, -1.960892404895276e-05, -8.648523362353444e-06, 2.31187732424587e-06, 1.3272278010845184e-05, 2.42326786974445e-05, 3.519307938404381e-05, 4.615348007064313e-05, 5.711388075724244e-05, 6.807428144384176e-05, 7.903468213044107e-05, 8.999508281704038e-05, 0.0001009554835036397, 0.00011191588419023901, 0.00012287628487683833, 0.00013383668556343764, 0.00014479708625003695, 0.00015575748693663627, 0.00016671788762323558, 0.0001776782883098349, 0.0001886386889964342, 0.00019959908968303353, 0.00021055949036963284, 0.00022151989105623215, 0.00023248029174283147, 0.00024344069242943078, 0.0002544010931160301, 0.00026536150835454464, 0.0002763218944892287, 0.0002872822806239128, 0.00029824269586242735, 0.0003092031111009419, 0.000320163497235626]}, "parameters/value_net.weight": {"_type": "histogram", "values": [1.0, 0.0, 0.0, 0.0, 0.0, 0.0, 0.0, 0.0, 1.0, 1.0, 1.0, 1.0, 1.0, 1.0, 4.0, 3.0, 2.0, 2.0, 2.0, 2.0, 0.0, 2.0, 1.0, 2.0, 4.0, 0.0, 1.0, 0.0, 0.0, 0.0, 0.0, 1.0, 1.0, 0.0, 1.0, 1.0, 2.0, 3.0, 1.0, 1.0, 1.0, 1.0, 3.0, 1.0, 2.0, 0.0, 2.0, 1.0, 2.0, 0.0, 0.0, 0.0, 1.0, 2.0, 0.0, 0.0, 1.0, 3.0, 0.0, 0.0, 0.0, 0.0, 0.0, 1.0], "bins": [-0.32697874307632446, -0.31670713424682617, -0.3064355254173279, -0.2961638867855072, -0.2858922779560089, -0.2756206691265106, -0.26534906029701233, -0.25507742166519165, -0.24480581283569336, -0.23453420400619507, -0.22426258027553558, -0.2139909714460373, -0.2037193477153778, -0.19344773888587952, -0.18317613005638123, -0.17290450632572174, -0.16263289749622345, -0.15236128866672516, -0.14208966493606567, -0.13181805610656738, -0.1215464323759079, -0.1112748235464096, -0.10100320726633072, -0.09073159098625183, -0.08045998215675354, -0.07018836587667465, -0.059916749596595764, -0.049645137041807175, -0.03937352076172829, -0.0291019044816494, -0.01883029192686081, -0.008558675646781921, 0.0017129480838775635, 0.011984563432633877, 0.02225617878139019, 0.03252779319882393, 0.04279940947890282, 0.053071025758981705, 0.0633426383137703, 0.07361425459384918, 0.08388587832450867, 0.09415749460458755, 0.10442911088466644, 0.11470071971416473, 0.12497234344482422, 0.1352439522743225, 0.1455155611038208, 0.15578718483448029, 0.16605879366397858, 0.17633040249347687, 0.18660202622413635, 0.19687363505363464, 0.20714525878429413, 0.21741686761379242, 0.2276884913444519, 0.2379601001739502, 0.2482317090034485, 0.2585033178329468, 0.26877492666244507, 0.27904656529426575, 0.28931817412376404, 0.29958978295326233, 0.3098613917827606, 0.3201330304145813, 0.3304046392440796]}, "parameters/value_net.bias": {"_type": "histogram", "values": [0.0, 0.0, 0.0, 0.0, 0.0, 0.0, 0.0, 0.0, 0.0, 0.0, 0.0, 0.0, 0.0, 0.0, 0.0, 0.0, 0.0, 0.0, 0.0, 0.0, 0.0, 0.0, 0.0, 0.0, 0.0, 0.0, 0.0, 0.0, 0.0, 0.0, 0.0, 0.0, 1.0, 0.0, 0.0, 0.0, 0.0, 0.0, 0.0, 0.0, 0.0, 0.0, 0.0, 0.0, 0.0, 0.0, 0.0, 0.0, 0.0, 0.0, 0.0, 0.0, 0.0, 0.0, 0.0, 0.0, 0.0, 0.0, 0.0, 0.0, 0.0, 0.0, 0.0, 0.0], "bins": [-0.03884041681885719, -0.03884041681885719, -0.03884041681885719, -0.03884041681885719, -0.03884041681885719, -0.03884041681885719, -0.03884041681885719, -0.03884041681885719, -0.03884041681885719, -0.03884041681885719, -0.03884041681885719, -0.03884041681885719, -0.03884041681885719, -0.03884041681885719, -0.03884041681885719, -0.03884041681885719, -0.03884041681885719, -0.03884041681885719, -0.03884041681885719, -0.03884041681885719, -0.03884041681885719, -0.03884041681885719, -0.03884041681885719, -0.03884041681885719, -0.03884041681885719, -0.03884041681885719, -0.03884041681885719, -0.03884041681885719, -0.03884041681885719, -0.03884041681885719, -0.03884041681885719, -0.03884041681885719, -0.03884041681885719, -0.03884041681885719, -0.03884041681885719, -0.03884041681885719, -0.03884041681885719, -0.03884041681885719, -0.03884041681885719, -0.03884041681885719, -0.03884041681885719, -0.03884041681885719, -0.03884041681885719, -0.03884041681885719, -0.03884041681885719, -0.03884041681885719, -0.03884041681885719, -0.03884041681885719, -0.03884041681885719, -0.03884041681885719, -0.03884041681885719, -0.03884041681885719, -0.03884041681885719, -0.03884041681885719, -0.03884041681885719, -0.03884041681885719, -0.03884041681885719, -0.03884041681885719, -0.03884041681885719, -0.03884041681885719, -0.03884041681885719, -0.03884041681885719, -0.03884041681885719, -0.03884041681885719, -0.03884041681885719]}, "global_step": 38355, "rollout/ep_len_mean": 88.43000030517578, "rollout/ep_rew_mean": -249.88999938964844, "time/fps": 27.0, "train/entropy_loss": -4.252867698669434, "train/clip_range": 0.20000000298023224, "train/std": 0.9991557002067566, "train/policy_gradient_loss": -0.0024265816900879145, "train/loss": 2099.078857421875, "train/learning_rate": 9.999999747378752e-06, "train/explained_variance": 4.4465065002441406e-05, "train/approx_kl": 0.00247309822589159, "train/clip_fraction": 0.0040039061568677425, "train/value_loss": 4052.87255859375, "_wandb": {"runtime": 1637}}