{"Episode reward": -269.9, "Checkpoint reached": 60, "largest_steps": 240, "highest_speed": 100.13699132178076, "Episode_Sim_Time": 400, "episode Highspeed": 65.30104815818997, "avg10_checkpoints": 88.63636363636364, "avg10_score": -272.43181818181824, "_timestamp": 1655864396.7995486, "_runtime": 920, "_step": 377, "parameters/log_std": {"_type": "histogram", "values": [1.0, 0.0, 0.0, 0.0, 0.0, 0.0, 0.0, 0.0, 0.0, 0.0, 0.0, 0.0, 0.0, 0.0, 0.0, 0.0, 0.0, 0.0, 0.0, 0.0, 0.0, 0.0, 0.0, 0.0, 0.0, 0.0, 0.0, 0.0, 0.0, 0.0, 0.0, 0.0, 0.0, 0.0, 0.0, 0.0, 0.0, 0.0, 0.0, 0.0, 0.0, 0.0, 0.0, 0.0, 0.0, 0.0, 0.0, 0.0, 0.0, 0.0, 0.0, 0.0, 1.0, 0.0, 0.0, 0.0, 0.0, 0.0, 0.0, 0.0, 0.0, 0.0, 0.0, 1.0], "bins": [-0.00112298340536654, -0.0010460230987519026, -0.0009690626757219434, -0.0008921023108996451, -0.0008151419460773468, -0.0007381815812550485, -0.0006612212164327502, -0.0005842608516104519, -0.0005073004867881536, -0.00043034012196585536, -0.00035337975714355707, -0.0002764193923212588, -0.0001994590274989605, -0.0001224986626766622, -4.553829785436392e-05, 3.142206696793437e-05, 0.00010838243179023266, 0.00018534279661253095, 0.00026230316143482924, 0.0003392635262571275, 0.0004162238910794258, 0.0004931842559017241, 0.0005701446207240224, 0.0006471049855463207, 0.000724065350368619, 0.0008010257151909173, 0.0008779860800132155, 0.0009549464448355138, 0.0010319068096578121, 0.0011088671162724495, 0.0011858275393024087, 0.001262787962332368, 0.0013397480361163616, 0.001416708342730999, 0.0014936687657609582, 0.0015706291887909174, 0.0016475894954055548, 0.0017245498020201921, 0.0018015102250501513, 0.0018784706480801105, 0.001955430954694748, 0.0020323912613093853, 0.0021093515679240227, 0.0021863121073693037, 0.002263272413983941, 0.0023402327205985785, 0.0024171932600438595, 0.002494153566658497, 0.0025711138732731342, 0.0026480741798877716, 0.002725034486502409, 0.00280199502594769, 0.0028789553325623274, 0.0029559156391769648, 0.003032876178622246, 0.003109836485236883, 0.0031867967918515205, 0.003263757098466158, 0.0033407174050807953, 0.0034176779445260763, 0.0034946382511407137, 0.003571598557755351, 0.003648559097200632, 0.0037255194038152695, 0.003802479710429907]}, "parameters/features_extractor.network.0.weight": {"_type": "histogram", "values": [1.0, 1.0, 0.0, 2.0, 1.0, 4.0, 9.0, 12.0, 12.0, 22.0, 31.0, 52.0, 72.0, 99.0, 124.0, 168.0, 262.0, 262.0, 329.0, 435.0, 534.0, 587.0, 702.0, 765.0, 905.0, 1021.0, 1046.0, 1160.0, 1203.0, 1182.0, 1259.0, 1322.0, 1277.0, 1224.0, 1137.0, 1044.0, 1006.0, 889.0, 762.0, 696.0, 599.0, 526.0, 414.0, 303.0, 278.0, 221.0, 176.0, 110.0, 85.0, 81.0, 40.0, 48.0, 28.0, 20.0, 11.0, 6.0, 5.0, 2.0, 0.0, 1.0, 1.0, 0.0, 0.0, 2.0], "bins": [-0.20483674108982086, -0.19817747175693512, -0.19151820242404938, -0.18485894799232483, -0.1781996786594391, -0.17154040932655334, -0.1648811399936676, -0.15822187066078186, -0.15156260132789612, -0.14490333199501038, -0.13824406266212463, -0.1315847933292389, -0.12492553144693375, -0.1182662695646286, -0.11160700023174286, -0.10494773089885712, -0.09828846901655197, -0.09162919968366623, -0.08496993780136108, -0.07831066846847534, -0.0716513991355896, -0.06499212980270386, -0.05833286792039871, -0.05167359858751297, -0.045014336705207825, -0.03835507109761238, -0.03169580176472664, -0.025036536157131195, -0.018377268686890602, -0.01171800121665001, -0.005058735609054565, 0.0016005337238311768, 0.008259803056716919, 0.014919070526957512, 0.021578337997198105, 0.02823760360479355, 0.03489687293767929, 0.041556138545274734, 0.04821540415287018, 0.05487467348575592, 0.06153394281864166, 0.0681932121515274, 0.07485247403383255, 0.08151174336671829, 0.08817101269960403, 0.09483027458190918, 0.10148954391479492, 0.10814881324768066, 0.11480807512998581, 0.12146734446287155, 0.1281266063451767, 0.13478587567806244, 0.14144514501094818, 0.14810441434383392, 0.15476366877555847, 0.1614229381084442, 0.16808220744132996, 0.1747414767742157, 0.18140074610710144, 0.18806001543998718, 0.19471926987171173, 0.20137853920459747, 0.20803780853748322, 0.21469707787036896, 0.2213563472032547]}, "parameters/features_extractor.network.0.bias": {"_type": "histogram", "values": [2.0, 0.0, 0.0, 1.0, 0.0, 0.0, 0.0, 0.0, 0.0, 0.0, 0.0, 3.0, 0.0, 0.0, 0.0, 0.0, 0.0, 0.0, 0.0, 0.0, 0.0, 0.0, 0.0, 0.0, 0.0, 0.0, 0.0, 0.0, 0.0, 0.0, 0.0, 0.0, 0.0, 0.0, 0.0, 0.0, 1.0, 0.0, 1.0, 2.0, 0.0, 0.0, 0.0, 1.0, 2.0, 2.0, 2.0, 1.0, 2.0, 1.0, 2.0, 1.0, 1.0, 1.0, 1.0, 0.0, 1.0, 0.0, 1.0, 0.0, 2.0, 0.0, 0.0, 1.0], "bins": [-0.0024143403861671686, -0.0022064493969082832, -0.001998558174818754, -0.0017906671855598688, -0.0015827761963009834, -0.001374885207042098, -0.0011669941013678908, -0.0009591029956936836, -0.0007512120064347982, -0.0005433209589682519, -0.00033542991150170565, -0.00012753886403515935, 8.035218343138695e-05, 0.00028824317269027233, 0.0004961342783644795, 0.0007040253840386868, 0.0009119163732975721, 0.0011198073625564575, 0.0013276984682306647, 0.001535589573904872, 0.0017434805631637573, 0.0019513715524226427, 0.002159262541681528, 0.002367153763771057, 0.0025750447530299425, 0.002782935742288828, 0.002990826964378357, 0.0031987179536372423, 0.0034066089428961277, 0.003614499932155013, 0.0038223909214138985, 0.0040302821435034275, 0.0042381733655929565, 0.004446064587682486, 0.004653955344110727, 0.004861846566200256, 0.005069737322628498, 0.005277628544718027, 0.005485519766807556, 0.005693410523235798, 0.005901301745325327, 0.006109192967414856, 0.006317083723843098, 0.006524974945932627, 0.006732866168022156, 0.0069407569244503975, 0.0071486481465399265, 0.007356539368629456, 0.007564430125057697, 0.007772321347147226, 0.007980212569236755, 0.008188103325664997, 0.008395994082093239, 0.008603885769844055, 0.008811776526272297, 0.009019667282700539, 0.009227558970451355, 0.009435449726879597, 0.009643341414630413, 0.009851232171058655, 0.010059122927486897, 0.010267013683915138, 0.010474905371665955, 0.010682796128094196, 0.010890686884522438]}, "parameters/features_extractor.network.2.weight": {"_type": "histogram", "values": [1.0, 1.0, 0.0, 0.0, 1.0, 3.0, 4.0, 12.0, 16.0, 15.0, 28.0, 40.0, 65.0, 75.0, 110.0, 137.0, 174.0, 264.0, 348.0, 418.0, 498.0, 571.0, 740.0, 861.0, 1028.0, 1094.0, 1302.0, 1410.0, 1487.0, 1580.0, 1678.0, 1603.0, 1677.0, 1675.0, 1623.0, 1582.0, 1436.0, 1400.0, 1233.0, 1089.0, 1036.0, 872.0, 717.0, 632.0, 517.0, 406.0, 327.0, 260.0, 179.0, 155.0, 113.0, 84.0, 57.0, 53.0, 27.0, 27.0, 6.0, 11.0, 1.0, 3.0, 2.0, 1.0, 1.0, 2.0], "bins": [-0.26188039779663086, -0.25375989079475403, -0.245639368891716, -0.23751884698867798, -0.22939833998680115, -0.22127781808376312, -0.2131572961807251, -0.20503678917884827, -0.19691626727581024, -0.18879574537277222, -0.18067523837089539, -0.17255471646785736, -0.16443419456481934, -0.1563136875629425, -0.14819316565990448, -0.14007264375686646, -0.13195213675498962, -0.1238316223025322, -0.11571110785007477, -0.10759058594703674, -0.09947007149457932, -0.09134955704212189, -0.08322903513908386, -0.07510852068662643, -0.066988006234169, -0.05886749178171158, -0.05074697360396385, -0.042626455426216125, -0.0345059409737587, -0.02638542652130127, -0.018264908343553543, -0.010144390165805817, -0.002023845911026001, 0.006096670404076576, 0.014217186719179153, 0.02233770303428173, 0.030458219349384308, 0.038578733801841736, 0.04669925197958946, 0.05481977015733719, 0.06294028460979462, 0.07106079906225204, 0.07918131351470947, 0.0873018354177475, 0.09542234987020493, 0.10354286432266235, 0.11166338622570038, 0.1197839006781578, 0.12790441513061523, 0.13602493703365326, 0.1441454440355301, 0.15226596593856812, 0.16038647294044495, 0.16850699484348297, 0.176627516746521, 0.18474802374839783, 0.19286854565143585, 0.20098906755447388, 0.2091095745563507, 0.21723009645938873, 0.22535061836242676, 0.2334711253643036, 0.2415916472673416, 0.24971216917037964, 0.25783267617225647]}, "parameters/features_extractor.network.2.bias": {"_type": "histogram", "values": [2.0, 4.0, 0.0, 4.0, 2.0, 1.0, 1.0, 1.0, 0.0, 1.0, 0.0, 0.0, 0.0, 1.0, 1.0, 0.0, 0.0, 0.0, 3.0, 0.0, 1.0, 0.0, 0.0, 1.0, 1.0, 0.0, 0.0, 0.0, 0.0, 1.0, 0.0, 0.0, 1.0, 1.0, 2.0, 3.0, 5.0, 1.0, 3.0, 2.0, 0.0, 5.0, 4.0, 1.0, 1.0, 0.0, 0.0, 2.0, 0.0, 2.0, 1.0, 1.0, 2.0, 0.0, 0.0, 0.0, 0.0, 0.0, 0.0, 0.0, 0.0, 0.0, 1.0, 1.0], "bins": [-0.002694893628358841, -0.0024931076914072037, -0.00229132198728621, -0.002089536050334573, -0.0018877501133829355, -0.00168596429284662, -0.0014841784723103046, -0.0012823925353586674, -0.001080606714822352, -0.0008788208360783756, -0.0006770349573343992, -0.0004752491367980838, -0.00027346325805410743, -7.167737931013107e-05, 0.00013010844122618437, 0.00033189437817782164, 0.0005336801987141371, 0.0007354660774581134, 0.0009372519562020898, 0.0011390377767384052, 0.0013408237136900425, 0.001542609534226358, 0.0017443953547626734, 0.0019461812917143106, 0.0021479669958353043, 0.0023497529327869415, 0.002551538636907935, 0.0027533245738595724, 0.0029551105108112097, 0.0031568962149322033, 0.0033586821518838406, 0.003560468088835478, 0.003762254025787115, 0.003964039962738752, 0.00416582589969039, 0.00436761137098074, 0.004569397307932377, 0.004771183244884014, 0.004972969181835651, 0.005174755118787289, 0.005376541055738926, 0.005578326992690563, 0.0057801129296422005, 0.005981898866593838, 0.006183684337884188, 0.006385470274835825, 0.006587256211787462, 0.0067890421487390995, 0.0069908276200294495, 0.007192613556981087, 0.007394399493932724, 0.007596185430884361, 0.007797970902174711, 0.007999757304787636, 0.008201543241739273, 0.00840332917869091, 0.008605115115642548, 0.008806901052594185, 0.009008686989545822, 0.00921047292649746, 0.009412258863449097, 0.009614044800400734, 0.009815830737352371, 0.010017616674304008, 0.010219401679933071]}, "parameters/features_extractor.network.4.weight": {"_type": "histogram", "values": [1.0, 1.0, 1.0, 2.0, 7.0, 11.0, 9.0, 18.0, 33.0, 40.0, 50.0, 78.0, 108.0, 157.0, 196.0, 267.0, 335.0, 397.0, 533.0, 628.0, 760.0, 882.0, 1039.0, 1210.0, 1350.0, 1469.0, 1604.0, 1769.0, 1852.0, 1889.0, 1932.0, 1941.0, 1911.0, 1857.0, 1667.0, 1628.0, 1520.0, 1275.0, 1155.0, 1036.0, 868.0, 750.0, 600.0, 489.0, 365.0, 313.0, 258.0, 177.0, 127.0, 98.0, 53.0, 49.0, 34.0, 21.0, 17.0, 11.0, 5.0, 4.0, 1.0, 3.0, 1.0, 1.0, 0.0, 1.0], "bins": [-0.23807509243488312, -0.23033463954925537, -0.22259418666362762, -0.21485373377799988, -0.20711328089237213, -0.19937282800674438, -0.19163239002227783, -0.1838919222354889, -0.17615148425102234, -0.1684110313653946, -0.16067057847976685, -0.1529301255941391, -0.14518967270851135, -0.1374492198228836, -0.12970876693725586, -0.12196832150220871, -0.11422786116600037, -0.10648740828037262, -0.09874695539474487, -0.09100650250911713, -0.08326604962348938, -0.07552559673786163, -0.06778515130281448, -0.06004469841718674, -0.05230425298213959, -0.04456380009651184, -0.036823347210884094, -0.029082898050546646, -0.0213424451649189, -0.013601992279291153, -0.005861543118953705, 0.0018789097666740417, 0.009619355201721191, 0.017359808087348938, 0.025100259110331535, 0.03284071013331413, 0.04058116301894188, 0.048321615904569626, 0.056062065064907074, 0.06380251795053482, 0.07154297828674316, 0.07928343117237091, 0.08702388405799866, 0.0947643369436264, 0.10250478982925415, 0.1102452427148819, 0.11798568814992905, 0.1257261335849762, 0.13346658647060394, 0.1412070393562317, 0.14894749224185944, 0.15668794512748718, 0.16442839801311493, 0.17216885089874268, 0.17990928888320923, 0.18764975666999817, 0.19539019465446472, 0.20313064754009247, 0.21087110042572021, 0.21861155331134796, 0.2263520061969757, 0.23409245908260345, 0.2418329119682312, 0.24957334995269775, 0.2573138177394867]}, "parameters/features_extractor.network.4.bias": {"_type": "histogram", "values": [2.0, 1.0, 2.0, 2.0, 1.0, 3.0, 3.0, 2.0, 0.0, 4.0, 1.0, 0.0, 3.0, 1.0, 0.0, 0.0, 1.0, 2.0, 1.0, 0.0, 1.0, 0.0, 0.0, 0.0, 0.0, 1.0, 1.0, 1.0, 0.0, 1.0, 1.0, 0.0, 1.0, 0.0, 1.0, 0.0, 0.0, 0.0, 2.0, 0.0, 0.0, 2.0, 0.0, 1.0, 2.0, 1.0, 1.0, 2.0, 1.0, 1.0, 1.0, 2.0, 2.0, 0.0, 0.0, 1.0, 3.0, 0.0, 1.0, 0.0, 1.0, 1.0, 0.0, 2.0], "bins": [-0.0037220390513539314, -0.003564669517800212, -0.0034072999842464924, -0.003249930450692773, -0.0030925609171390533, -0.002935191383585334, -0.0027778218500316143, -0.0026204525493085384, -0.0024630827829241753, -0.0023057132493704557, -0.0021483437158167362, -0.0019909741822630167, -0.0018336046487092972, -0.0016762351151555777, -0.00151886569801718, -0.0013614961644634604, -0.0012041267473250628, -0.0010467572137713432, -0.0008893876802176237, -0.0007320182048715651, -0.0005746486713178456, -0.00041727913776412606, -0.00025990966241806746, -0.00010254012886434793, 5.482928827404976e-05, 0.00021219880727585405, 0.00036956832627765834, 0.0005269378307275474, 0.0006843073642812669, 0.0008416768978349864, 0.000999046373181045, 0.0011564159067347646, 0.001313785556703806, 0.0014711550902575254, 0.001628524623811245, 0.0017858941573649645, 0.001943263690918684, 0.0021006332244724035, 0.002258002758026123, 0.002415372058749199, 0.002572741825133562, 0.0027301113586872816, 0.002887480892241001, 0.0030448504257947206, 0.00320221995934844, 0.0033595894929021597, 0.003516959026455879, 0.003674328327178955, 0.0038316978607326746, 0.003989067394286394, 0.00414643669500947, 0.004303806461393833, 0.004461175762116909, 0.004618545528501272, 0.004775914829224348, 0.004933284595608711, 0.005090653896331787, 0.005248023197054863, 0.005405392963439226, 0.005562762264162302, 0.005720132030546665, 0.005877501331269741, 0.006034871097654104, 0.00619224039837718, 0.006349610164761543]}, "parameters/features_extractor.network.6.weight": {"_type": "histogram", "values": [2.0, 2.0, 0.0, 1.0, 0.0, 2.0, 2.0, 1.0, 5.0, 3.0, 8.0, 1.0, 7.0, 10.0, 13.0, 18.0, 15.0, 22.0, 27.0, 24.0, 39.0, 32.0, 30.0, 40.0, 46.0, 51.0, 36.0, 43.0, 49.0, 33.0, 40.0, 42.0, 45.0, 37.0, 25.0, 33.0, 32.0, 32.0, 19.0, 20.0, 20.0, 21.0, 22.0, 10.0, 15.0, 6.0, 6.0, 5.0, 6.0, 5.0, 10.0, 2.0, 2.0, 2.0, 1.0, 0.0, 1.0, 1.0, 1.0, 0.0, 0.0, 0.0, 0.0, 1.0], "bins": [-0.5540357828140259, -0.5353848338127136, -0.5167338848114014, -0.4980829954147339, -0.47943204641342163, -0.4607810974121094, -0.4421301782131195, -0.42347925901412964, -0.4048283100128174, -0.3861773610115051, -0.36752644181251526, -0.3488755226135254, -0.33022457361221313, -0.3115736246109009, -0.292922705411911, -0.27427178621292114, -0.2556208372116089, -0.23696990311145782, -0.21831896901130676, -0.1996680349111557, -0.18101710081100464, -0.16236616671085358, -0.14371523261070251, -0.12506429851055145, -0.10641336441040039, -0.08776243031024933, -0.06911149621009827, -0.050460562109947205, -0.03180962800979614, -0.01315869390964508, 0.0054922401905059814, 0.024143174290657043, 0.042794108390808105, 0.06144504249095917, 0.08009597659111023, 0.09874691069126129, 0.11739784479141235, 0.13604877889156342, 0.15469971299171448, 0.17335064709186554, 0.1920015811920166, 0.21065251529216766, 0.22930344939231873, 0.2479543834924698, 0.26660531759262085, 0.2852562665939331, 0.303907185792923, 0.32255810499191284, 0.3412090539932251, 0.35986000299453735, 0.3785109221935272, 0.3971618413925171, 0.41581279039382935, 0.4344637393951416, 0.45311465859413147, 0.47176557779312134, 0.4904165267944336, 0.5090674757957458, 0.5277184247970581, 0.5463693141937256, 0.5650202631950378, 0.5836712121963501, 0.6023221015930176, 0.6209730505943298, 0.6396239995956421]}, "parameters/features_extractor.network.6.bias": {"_type": "histogram", "values": [1.0, 0.0, 0.0, 1.0, 0.0, 0.0, 0.0, 0.0, 0.0, 0.0, 0.0, 0.0, 0.0, 0.0, 1.0, 1.0, 0.0, 0.0, 1.0, 0.0, 1.0, 0.0, 0.0, 0.0, 0.0, 1.0, 0.0, 0.0, 0.0, 0.0, 0.0, 0.0, 0.0, 0.0, 0.0, 0.0, 1.0, 0.0, 1.0, 0.0, 0.0, 0.0, 0.0, 0.0, 0.0, 0.0, 1.0, 0.0, 0.0, 1.0, 0.0, 0.0, 0.0, 0.0, 0.0, 0.0, 0.0, 0.0, 1.0, 1.0, 1.0, 0.0, 0.0, 2.0], "bins": [-0.001586601254530251, -0.0014813964953646064, -0.00137619161978364, -0.0012709868606179953, -0.0011657821014523506, -0.0010605772258713841, -0.0009553724667057395, -0.0008501676493324339, -0.0007449628319591284, -0.0006397580145858228, -0.0005345531972125173, -0.0004293484380468726, -0.00032414362067356706, -0.0002189388033002615, -0.00011373404413461685, -8.529226761311293e-06, 9.667559061199427e-05, 0.0002018803934333846, 0.00030708519625477493, 0.00041228998452425003, 0.0005174948018975556, 0.0006226996192708611, 0.0007279043784365058, 0.0008331091958098114, 0.0009383138967677951, 0.0010435186559334397, 0.0011487235315144062, 0.0012539282906800508, 0.0013591330498456955, 0.001464337925426662, 0.0015695426845923066, 0.001674747560173273, 0.0017799525521695614, 0.001885157311335206, 0.0019903620705008507, 0.002095567062497139, 0.0022007718216627836, 0.0023059765808284283, 0.002411181339994073, 0.0025163860991597176, 0.002621591091156006, 0.0027267958503216505, 0.002832000609487295, 0.0029372056014835835, 0.003042410360649228, 0.0031476151198148727, 0.0032528198789805174, 0.003358024638146162, 0.0034632293973118067, 0.0035684341564774513, 0.003673638915643096, 0.0037788436748087406, 0.003884048666805029, 0.00398925319314003, 0.004094458185136318, 0.0041996631771326065, 0.0043048677034676075, 0.004410072695463896, 0.004515277221798897, 0.004620482213795185, 0.004725686740130186, 0.004830891732126474, 0.004936096258461475, 0.005041301250457764, 0.005146506242454052]}, "parameters/features_extractor.network.9.weight": {"_type": "histogram", "values": [1.0, 0.0, 1.0, 2.0, 5.0, 5.0, 8.0, 11.0, 39.0, 48.0, 84.0, 99.0, 170.0, 294.0, 424.0, 622.0, 866.0, 1160.0, 1638.0, 2195.0, 2745.0, 3511.0, 4303.0, 5204.0, 6200.0, 7292.0, 8277.0, 9404.0, 10219.0, 10750.0, 11344.0, 11678.0, 11683.0, 11247.0, 11048.0, 10399.0, 9448.0, 8652.0, 7680.0, 6600.0, 5469.0, 4674.0, 3702.0, 3059.0, 2330.0, 1749.0, 1338.0, 953.0, 666.0, 487.0, 318.0, 223.0, 134.0, 103.0, 43.0, 42.0, 22.0, 19.0, 6.0, 3.0, 6.0, 0.0, 1.0, 1.0], "bins": [-0.2368641197681427, -0.2294933795928955, -0.22212262451648712, -0.21475188434123993, -0.20738112926483154, -0.20001038908958435, -0.19263964891433716, -0.18526889383792877, -0.17789815366268158, -0.1705274134874344, -0.163156658411026, -0.1557859182357788, -0.14841516315937042, -0.14104442298412323, -0.13367366790771484, -0.12630292773246765, -0.11893218010663986, -0.11156143248081207, -0.10419068485498428, -0.0968199372291565, -0.0894491970539093, -0.08207844942808151, -0.07470770180225372, -0.06733696162700653, -0.059966206550598145, -0.052595458924770355, -0.045224715024232864, -0.037853967398405075, -0.030483221635222435, -0.023112475872039795, -0.015741728246212006, -0.008370984345674515, -0.001000240445137024, 0.0063705057837069035, 0.01374125201255083, 0.021111998707056046, 0.028482744470238686, 0.035853490233421326, 0.043224237859249115, 0.050594981759786606, 0.0579657256603241, 0.06533647328615189, 0.07270722091197968, 0.08007796108722687, 0.08744870871305466, 0.09481945633888245, 0.10219020396471024, 0.10956095159053802, 0.11693169921636581, 0.1243024468421936, 0.1316731870174408, 0.13904394209384918, 0.14641468226909637, 0.15378543734550476, 0.16115617752075195, 0.16852691769599915, 0.17589767277240753, 0.18326841294765472, 0.1906391680240631, 0.1980099081993103, 0.2053806632757187, 0.21275140345096588, 0.22012215852737427, 0.22749289870262146, 0.23486363887786865]}, "parameters/features_extractor.network.9.bias": {"_type": "histogram", "values": [1.0, 1.0, 0.0, 0.0, 0.0, 1.0, 5.0, 2.0, 2.0, 1.0, 6.0, 6.0, 10.0, 9.0, 10.0, 10.0, 10.0, 1.0, 8.0, 4.0, 6.0, 7.0, 4.0, 4.0, 4.0, 1.0, 0.0, 1.0, 1.0, 0.0, 2.0, 5.0, 4.0, 0.0, 0.0, 1.0, 3.0, 1.0, 8.0, 4.0, 4.0, 7.0, 7.0, 11.0, 15.0, 13.0, 13.0, 11.0, 4.0, 3.0, 4.0, 4.0, 4.0, 2.0, 1.0, 2.0, 1.0, 2.0, 1.0, 1.0, 0.0, 0.0, 1.0, 2.0], "bins": [-0.003848309861496091, -0.003721710294485092, -0.00359511049464345, -0.0034685106948018074, -0.0033419111277908087, -0.00321531156077981, -0.0030887117609381676, -0.002962111961096525, -0.0028355123940855265, -0.0027089128270745277, -0.0025823130272328854, -0.002455713227391243, -0.0023291136603802443, -0.0022025140933692455, -0.002075914293527603, -0.0019493146101012826, -0.001822714926674962, -0.0016961152432486415, -0.001569515559822321, -0.0014429158763960004, -0.0013163161929696798, -0.0011897165095433593, -0.0010631168261170387, -0.0009365171426907182, -0.0008099174592643976, -0.0006833177758380771, -0.0005567180924117565, -0.00043011840898543596, -0.0003035187255591154, -0.00017691904213279486, -5.0319358706474304e-05, 7.628032471984625e-05, 0.00020288024097681046, 0.000329479924403131, 0.00045607960782945156, 0.0005826792912557721, 0.0007092789746820927, 0.0008358786581084132, 0.0009624783415347338, 0.0010890780249610543, 0.0012156777083873749, 0.0013422773918136954, 0.001468877075240016, 0.0015954767586663365, 0.001722076442092657, 0.0018486761255189776, 0.001975275808945298, 0.002101875375956297, 0.0022284751757979393, 0.0023550749756395817, 0.0024816745426505804, 0.002608274109661579, 0.0027348739095032215, 0.002861473709344864, 0.0029880732763558626, 0.0031146728433668613, 0.0032412726432085037, 0.003367872443050146, 0.003494472010061145, 0.0036210715770721436, 0.003747671376913786, 0.0038742711767554283, 0.004000870510935783, 0.004127470310777426, 0.004254070110619068]}, "parameters/mlp_extractor.policy_net.0.weight": {"_type": "histogram", "values": [4.0, 4.0, 4.0, 8.0, 11.0, 13.0, 26.0, 27.0, 28.0, 44.0, 60.0, 68.0, 80.0, 126.0, 140.0, 164.0, 209.0, 253.0, 332.0, 355.0, 381.0, 437.0, 493.0, 565.0, 530.0, 618.0, 684.0, 720.0, 713.0, 724.0, 749.0, 708.0, 713.0, 696.0, 720.0, 639.0, 560.0, 525.0, 493.0, 435.0, 362.0, 382.0, 284.0, 275.0, 195.0, 175.0, 145.0, 112.0, 81.0, 77.0, 61.0, 54.0, 33.0, 20.0, 16.0, 19.0, 10.0, 6.0, 9.0, 6.0, 1.0, 0.0, 1.0, 1.0], "bins": [-0.3044450581073761, -0.29444971680641174, -0.2844543755054474, -0.27445903420448303, -0.2644636929035187, -0.2544683516025543, -0.24447299540042877, -0.23447765409946442, -0.22448231279850006, -0.2144869714975357, -0.20449163019657135, -0.194496288895607, -0.18450093269348145, -0.1745055913925171, -0.16451025009155273, -0.15451490879058838, -0.14451956748962402, -0.13452422618865967, -0.12452888488769531, -0.11453353613615036, -0.104538194835186, -0.09454285353422165, -0.0845475047826767, -0.07455216348171234, -0.06455682218074799, -0.05456148087978363, -0.044566135853528976, -0.03457079082727432, -0.024575449526309967, -0.014580108225345612, -0.004584763199090958, 0.005410581827163696, 0.015405923128128052, 0.025401266291737556, 0.03539660945534706, 0.045391954481601715, 0.05538729578256607, 0.06538263708353043, 0.07537798583507538, 0.08537332713603973, 0.09536866843700409, 0.10536400973796844, 0.1153593510389328, 0.12535469233989716, 0.1353500485420227, 0.14534538984298706, 0.15534073114395142, 0.16533607244491577, 0.17533141374588013, 0.18532675504684448, 0.19532209634780884, 0.2053174376487732, 0.21531277894973755, 0.2253081202507019, 0.23530347645282745, 0.2452988177537918, 0.25529414415359497, 0.2652894854545593, 0.2752848267555237, 0.28528016805648804, 0.2952755093574524, 0.30527085065841675, 0.3152661919593811, 0.32526153326034546, 0.3352569043636322]}, "parameters/mlp_extractor.policy_net.0.bias": {"_type": "histogram", "values": [1.0, 0.0, 0.0, 0.0, 0.0, 0.0, 0.0, 1.0, 0.0, 1.0, 0.0, 0.0, 0.0, 0.0, 2.0, 0.0, 0.0, 1.0, 1.0, 1.0, 0.0, 2.0, 0.0, 3.0, 0.0, 4.0, 3.0, 1.0, 2.0, 19.0, 2.0, 4.0, 2.0, 1.0, 2.0, 2.0, 0.0, 0.0, 1.0, 0.0, 1.0, 1.0, 0.0, 0.0, 0.0, 1.0, 1.0, 0.0, 0.0, 0.0, 0.0, 1.0, 1.0, 0.0, 1.0, 0.0, 0.0, 0.0, 0.0, 0.0, 0.0, 0.0, 0.0, 1.0], "bins": [-0.000628679059445858, -0.0006072067772038281, -0.0005857345531694591, -0.0005642622709274292, -0.0005427900468930602, -0.0005213177646510303, -0.0004998454824090004, -0.0004783732583746314, -0.00045690100523643196, -0.0004354287520982325, -0.00041395649896003306, -0.0003924842458218336, -0.0003710119635798037, -0.0003495397395454347, -0.0003280674573034048, -0.00030659520416520536, -0.0002851229510270059, -0.00026365069788880646, -0.00024217844475060701, -0.00022070617706049234, -0.0001992339239222929, -0.00017776167078409344, -0.00015628940309397876, -0.00013481714995577931, -0.00011334486771374941, -9.187261457554996e-05, -7.04003541613929e-05, -4.8928093747235835e-05, -2.7455840609036386e-05, -5.9835874708369374e-06, 1.548868021927774e-05, 3.696093335747719e-05, 5.8433215599507093e-05, 7.990546873770654e-05, 0.0001013777291518636, 0.00012284998956602067, 0.00014432224270422012, 0.00016579449584241956, 0.00018726676353253424, 0.0002087390166707337, 0.00023021124070510268, 0.00025168349384330213, 0.0002731557469815016, 0.0002946280292235315, 0.0003161002532579005, 0.0003375725354999304, 0.00035904478863812983, 0.0003805170417763293, 0.0004019893240183592, 0.00042346157715655863, 0.0004449338302947581, 0.000466406112536788, 0.000487878336571157, 0.0005093506188131869, 0.0005308229010552168, 0.0005522951250895858, 0.0005737673491239548, 0.0005952396313659847, 0.0006167118554003537, 0.0006381841376423836, 0.0006596563616767526, 0.0006811286439187825, 0.0007026009261608124, 0.0007240731501951814, 0.0007455454324372113]}, "parameters/mlp_extractor.policy_net.2.weight": {"_type": "histogram", "values": [1.0, 0.0, 0.0, 2.0, 0.0, 0.0, 1.0, 7.0, 4.0, 4.0, 11.0, 12.0, 17.0, 18.0, 31.0, 29.0, 30.0, 53.0, 36.0, 66.0, 62.0, 77.0, 90.0, 104.0, 114.0, 120.0, 119.0, 141.0, 140.0, 166.0, 177.0, 165.0, 172.0, 176.0, 170.0, 193.0, 163.0, 176.0, 140.0, 125.0, 124.0, 110.0, 113.0, 100.0, 84.0, 80.0, 77.0, 59.0, 50.0, 39.0, 29.0, 30.0, 17.0, 18.0, 12.0, 12.0, 4.0, 10.0, 3.0, 6.0, 3.0, 2.0, 1.0, 1.0], "bins": [-0.6355253458023071, -0.6165757775306702, -0.5976262092590332, -0.5786766409873962, -0.5597270727157593, -0.5407775640487671, -0.5218279957771301, -0.5028784275054932, -0.4839288592338562, -0.46497929096221924, -0.4460297226905823, -0.4270801842212677, -0.40813061594963074, -0.3891810476779938, -0.3702315092086792, -0.35128194093704224, -0.3323323726654053, -0.3133828043937683, -0.29443323612213135, -0.2754836976528168, -0.2565341293811798, -0.23758456110954285, -0.21863500773906708, -0.1996854543685913, -0.18073588609695435, -0.16178631782531738, -0.1428367644548416, -0.12388720363378525, -0.10493764281272888, -0.08598808199167252, -0.06703852117061615, -0.04808896780014038, -0.029139339923858643, -0.010189779102802277, 0.00875978171825409, 0.027709342539310455, 0.04665890336036682, 0.06560846418142319, 0.08455802500247955, 0.10350757837295532, 0.12245714664459229, 0.14140671491622925, 0.16035626828670502, 0.1793058216571808, 0.19825538992881775, 0.2172049582004547, 0.23615451157093048, 0.25510406494140625, 0.2740536332130432, 0.2930032014846802, 0.31195276975631714, 0.3309023082256317, 0.3498518764972687, 0.36880144476890564, 0.3877509832382202, 0.4067005515098572, 0.42565011978149414, 0.4445996880531311, 0.46354925632476807, 0.48249879479408264, 0.501448392868042, 0.5203979015350342, 0.5393474698066711, 0.5582970380783081, 0.5772466063499451]}, "parameters/mlp_extractor.policy_net.2.bias": {"_type": "histogram", "values": [1.0, 0.0, 0.0, 1.0, 0.0, 0.0, 0.0, 0.0, 0.0, 0.0, 0.0, 0.0, 0.0, 0.0, 2.0, 1.0, 0.0, 0.0, 0.0, 1.0, 0.0, 0.0, 0.0, 0.0, 2.0, 0.0, 0.0, 1.0, 2.0, 1.0, 2.0, 1.0, 2.0, 5.0, 4.0, 11.0, 6.0, 6.0, 1.0, 0.0, 1.0, 1.0, 0.0, 0.0, 3.0, 1.0, 1.0, 0.0, 1.0, 2.0, 0.0, 1.0, 0.0, 1.0, 0.0, 0.0, 0.0, 0.0, 1.0, 0.0, 0.0, 0.0, 0.0, 1.0], "bins": [-0.0005116321844980121, -0.0004974657204002142, -0.00048329922719858587, -0.00046913273399695754, -0.00045496626989915967, -0.00044079977669753134, -0.000426633283495903, -0.00041246681939810514, -0.0003983003553003073, -0.00038413386209867895, -0.0003699673980008811, -0.00035580090479925275, -0.0003416344407014549, -0.00032746794749982655, -0.0003133014542981982, -0.00029913499020040035, -0.000284968496998772, -0.0002708020037971437, -0.0002566355396993458, -0.0002424690464977175, -0.00022830258239991963, -0.0002141360891982913, -0.0001999696105485782, -0.0001858031318988651, -0.00017163663869723678, -0.00015747016004752368, -0.00014330368139781058, -0.00012913718819618225, -0.00011497071682242677, -0.00010080423817271367, -8.663775224704295e-05, -7.247127359732985e-05, -5.830478039570153e-05, -4.413830174598843e-05, -2.9971819458296522e-05, -1.5805337170604616e-05, -1.6388585208915174e-06, 1.2527620128821582e-05, 2.6694106054492295e-05, 4.0860584704205394e-05, 5.5027048802003264e-05, 6.919352745171636e-05, 8.336000610142946e-05, 9.752649202710018e-05, 0.00011169297067681327, 0.000125859456602484, 0.0001400259352521971, 0.00015419241390191019, 0.0001683589071035385, 0.0001825253857532516, 0.0001966918644029647, 0.00021085835760459304, 0.0002250248217023909, 0.00023919131490401924, 0.00025335780810564756, 0.00026752427220344543, 0.0002816907363012433, 0.00029585722950287163, 0.0003100236936006695, 0.00032419018680229783, 0.0003383566509000957, 0.00035252314410172403, 0.00036668963730335236, 0.0003808561014011502, 0.00039502259460277855]}, "parameters/mlp_extractor.value_net.0.weight": {"_type": "histogram", "values": [3.0, 2.0, 5.0, 4.0, 8.0, 22.0, 18.0, 25.0, 39.0, 31.0, 57.0, 79.0, 95.0, 144.0, 167.0, 221.0, 257.0, 276.0, 350.0, 427.0, 461.0, 535.0, 598.0, 654.0, 681.0, 717.0, 783.0, 795.0, 732.0, 738.0, 798.0, 748.0, 714.0, 663.0, 630.0, 564.0, 502.0, 452.0, 447.0, 381.0, 292.0, 266.0, 226.0, 165.0, 155.0, 111.0, 92.0, 59.0, 70.0, 32.0, 28.0, 20.0, 11.0, 10.0, 5.0, 3.0, 6.0, 2.0, 3.0, 3.0, 1.0, 0.0, 0.0, 1.0], "bins": [-0.30998149514198303, -0.29931893944740295, -0.2886563837528229, -0.2779938280582428, -0.26733124256134033, -0.25666868686676025, -0.24600613117218018, -0.2353435754776001, -0.22468101978302002, -0.21401846408843994, -0.20335590839385986, -0.1926933377981186, -0.1820307821035385, -0.17136822640895844, -0.16070565581321716, -0.15004310011863708, -0.139380544424057, -0.12871798872947693, -0.11805542558431625, -0.10739286243915558, -0.0967303067445755, -0.08606775104999542, -0.07540518790483475, -0.06474262475967407, -0.054080069065093994, -0.04341750964522362, -0.03275495022535324, -0.022092390805482864, -0.011429831385612488, -0.0007672719657421112, 0.009895287454128265, 0.02055785059928894, 0.03122037649154663, 0.04188293591141701, 0.052545495331287384, 0.06320805847644806, 0.07387061417102814, 0.08453316986560822, 0.09519573301076889, 0.10585829615592957, 0.11652085185050964, 0.12718340754508972, 0.1378459632396698, 0.14850853383541107, 0.15917108952999115, 0.16983364522457123, 0.1804962158203125, 0.19115877151489258, 0.20182132720947266, 0.21248388290405273, 0.2231464385986328, 0.23380900919437408, 0.24447156488895416, 0.25513413548469543, 0.2657966911792755, 0.2764592468738556, 0.28712180256843567, 0.29778435826301575, 0.3084469139575958, 0.3191094696521759, 0.32977205514907837, 0.34043461084365845, 0.3510971665382385, 0.3617597222328186, 0.3724222779273987]}, "parameters/mlp_extractor.value_net.0.bias": {"_type": "histogram", "values": [1.0, 0.0, 0.0, 0.0, 0.0, 1.0, 0.0, 0.0, 0.0, 0.0, 2.0, 4.0, 1.0, 1.0, 1.0, 5.0, 3.0, 1.0, 1.0, 1.0, 0.0, 0.0, 1.0, 2.0, 1.0, 1.0, 1.0, 1.0, 0.0, 1.0, 0.0, 0.0, 0.0, 0.0, 0.0, 1.0, 1.0, 1.0, 2.0, 2.0, 1.0, 7.0, 4.0, 4.0, 1.0, 0.0, 0.0, 1.0, 1.0, 1.0, 1.0, 0.0, 1.0, 2.0, 0.0, 1.0, 0.0, 0.0, 0.0, 0.0, 0.0, 0.0, 1.0, 1.0], "bins": [-0.003972472157329321, -0.003832321148365736, -0.003692170139402151, -0.003552019130438566, -0.0034118681214749813, -0.0032717171125113964, -0.003131565870717168, -0.002991414861753583, -0.002851263852789998, -0.002711112843826413, -0.0025709618348628283, -0.0024308108258992434, -0.002290659584105015, -0.00215050857514143, -0.002010357566177845, -0.00187020655721426, -0.0017300555482506752, -0.0015899045392870903, -0.0014497535303235054, -0.0013096024049445987, -0.0011694513959810138, -0.0010293003870174289, -0.0008891493198461831, -0.0007489982526749372, -0.0006088472437113523, -0.000468696205643937, -0.00032854516757652164, -0.00018839412950910628, -4.824309144169092e-05, 9.190791752189398e-05, 0.0002320589846931398, 0.0003722100518643856, 0.0005123615264892578, 0.0006525125354528427, 0.0007926636026240885, 0.0009328146697953343, 0.0010729656787589192, 0.0012131166877225041, 0.0013532678131014109, 0.0014934188220649958, 0.0016335698310285807, 0.0017737208399921656, 0.0019138718489557505, 0.0020540228579193354, 0.002194174099713564, 0.002334325108677149, 0.0024744761176407337, 0.0026146271266043186, 0.0027547781355679035, 0.0028949291445314884, 0.0030350801534950733, 0.0031752311624586582, 0.003315382171422243, 0.003455533180385828, 0.0035956844221800566, 0.0037358354311436415, 0.0038759864401072264, 0.004016137681901455, 0.00415628869086504, 0.004296439699828625, 0.00443659070879221, 0.0045767417177557945, 0.004716892726719379, 0.004857043735682964, 0.004997194744646549]}, "parameters/mlp_extractor.value_net.2.weight": {"_type": "histogram", "values": [3.0, 0.0, 1.0, 1.0, 7.0, 5.0, 3.0, 6.0, 15.0, 21.0, 31.0, 31.0, 42.0, 44.0, 44.0, 61.0, 63.0, 67.0, 79.0, 99.0, 111.0, 113.0, 125.0, 134.0, 156.0, 179.0, 162.0, 189.0, 160.0, 173.0, 161.0, 182.0, 151.0, 169.0, 153.0, 145.0, 117.0, 134.0, 113.0, 93.0, 78.0, 87.0, 68.0, 71.0, 56.0, 38.0, 36.0, 30.0, 24.0, 15.0, 14.0, 10.0, 10.0, 7.0, 3.0, 4.0, 0.0, 0.0, 0.0, 0.0, 1.0, 0.0, 0.0, 1.0], "bins": [-0.577177882194519, -0.5578351020812988, -0.5384922623634338, -0.5191494822502136, -0.4998067021369934, -0.4804638922214508, -0.4611210823059082, -0.441778302192688, -0.4224355220794678, -0.40309271216392517, -0.38374993205070496, -0.36440712213516235, -0.34506434202194214, -0.32572153210639954, -0.30637872219085693, -0.2870359420776367, -0.2676931321620941, -0.2483503371477127, -0.2290075421333313, -0.2096647322177887, -0.19032195210456848, -0.17097914218902588, -0.15163634717464447, -0.13229355216026306, -0.11295074224472046, -0.09360794723033905, -0.07426515221595764, -0.054922349750995636, -0.03557955473661423, -0.01623675972223282, 0.003106042742729187, 0.022448837757110596, 0.04179161787033081, 0.06113441288471222, 0.08047720789909363, 0.09982001036405563, 0.11916280537843704, 0.13850560784339905, 0.15784840285778046, 0.17719119787216187, 0.19653397798538208, 0.2158767729997635, 0.2352195680141449, 0.2545623779296875, 0.2739051580429077, 0.2932479679584503, 0.3125907778739929, 0.33193355798721313, 0.35127636790275574, 0.37061917781829834, 0.38996195793151855, 0.40930476784706116, 0.42864754796028137, 0.447990357875824, 0.4673331379890442, 0.4866759479045868, 0.5060187578201294, 0.5253615379333496, 0.5447043776512146, 0.5640471577644348, 0.583389937877655, 0.6027327179908752, 0.6220755577087402, 0.6414183378219604, 0.6607611179351807]}, "parameters/mlp_extractor.value_net.2.bias": {"_type": "histogram", "values": [1.0, 0.0, 1.0, 0.0, 0.0, 0.0, 0.0, 0.0, 0.0, 1.0, 1.0, 0.0, 1.0, 7.0, 3.0, 3.0, 1.0, 4.0, 2.0, 2.0, 2.0, 3.0, 0.0, 3.0, 1.0, 2.0, 2.0, 1.0, 0.0, 0.0, 0.0, 0.0, 0.0, 0.0, 0.0, 0.0, 0.0, 0.0, 0.0, 1.0, 1.0, 0.0, 0.0, 1.0, 1.0, 0.0, 2.0, 1.0, 2.0, 1.0, 1.0, 1.0, 2.0, 1.0, 2.0, 0.0, 2.0, 2.0, 0.0, 0.0, 1.0, 0.0, 0.0, 1.0], "bins": [-0.027528326958417892, -0.026700060814619064, -0.025871796533465385, -0.025043530389666557, -0.02421526610851288, -0.02338699996471405, -0.022558733820915222, -0.021730467677116394, -0.020902203395962715, -0.020073937252163887, -0.019245672971010208, -0.01841740682721138, -0.017589140683412552, -0.016760876402258873, -0.015932610258460045, -0.015104345045983791, -0.014276079833507538, -0.013447814621031284, -0.01261954940855503, -0.011791283264756203, -0.01096301805227995, -0.010134752839803696, -0.009306486696004868, -0.008478221483528614, -0.0076499562710523605, -0.006821691058576107, -0.005993425380438566, -0.005165159702301025, -0.004336894489824772, -0.0035086292773485184, -0.0026803635992109776, -0.0018520979210734367, -0.0010238345712423325, -0.0001955691259354353, 0.0006326963193714619, 0.001460961764678359, 0.002289227209985256, 0.0031174924224615097, 0.0039457581005990505, 0.004774023778736591, 0.005602288991212845, 0.006430554203689098, 0.007258819881826639, 0.00808708555996418, 0.008915350772440434, 0.009743615984916687, 0.010571882128715515, 0.011400147341191769, 0.012228412553668022, 0.013056677766144276, 0.01388494297862053, 0.014713209122419357, 0.01554147433489561, 0.016369739547371864, 0.017198005691170692, 0.01802626997232437, 0.0188545361161232, 0.019682802259922028, 0.020511066541075706, 0.021339332684874535, 0.022167596966028214, 0.02299586310982704, 0.02382412925362587, 0.024652395397424698, 0.025480659678578377]}, "parameters/action_net.weight": {"_type": "histogram", "values": [1.0, 0.0, 0.0, 0.0, 0.0, 1.0, 0.0, 0.0, 1.0, 1.0, 0.0, 1.0, 0.0, 0.0, 0.0, 1.0, 0.0, 3.0, 2.0, 0.0, 2.0, 0.0, 1.0, 1.0, 2.0, 2.0, 4.0, 4.0, 6.0, 13.0, 11.0, 19.0, 18.0, 11.0, 15.0, 15.0, 14.0, 14.0, 8.0, 2.0, 1.0, 2.0, 2.0, 0.0, 0.0, 1.0, 2.0, 1.0, 2.0, 0.0, 0.0, 1.0, 0.0, 1.0, 0.0, 0.0, 1.0, 2.0, 1.0, 0.0, 0.0, 0.0, 1.0, 1.0], "bins": [-0.01475998479872942, -0.01432120893150568, -0.01388243306428194, -0.0134436571970582, -0.013004881329834461, -0.012566105462610722, -0.012127328664064407, -0.011688552796840668, -0.011249776929616928, -0.010811001062393188, -0.010372225195169449, -0.00993344932794571, -0.00949467346072197, -0.00905589759349823, -0.00861712172627449, -0.00817834585905075, -0.007739569991827011, -0.0073007941246032715, -0.006862018257379532, -0.006423242390155792, -0.005984466522932053, -0.005545690655708313, -0.005106914322823286, -0.004668138455599546, -0.0042293621227145195, -0.00379058625549078, -0.0033518103882670403, -0.002913034288212657, -0.0024742584209889174, -0.0020354825537651777, -0.0015967064537107944, -0.0011579305864870548, -0.0007191551849246025, -0.00028037925949320197, 0.00015839666593819857, 0.00059717264957726, 0.0010359485168009996, 0.0014747243840247393, 0.0019135004840791225, 0.002352276351302862, 0.0027910517528653145, 0.003229827620089054, 0.0036686034873127937, 0.004107379354536533, 0.004546155221760273, 0.004984931088984013, 0.0054237074218690395, 0.005862483289092779, 0.006301259621977806, 0.006740035489201546, 0.007178811356425285, 0.007617587223649025, 0.008056363090872765, 0.008495138958096504, 0.008933914825320244, 0.009372690692543983, 0.009811466559767723, 0.010250242426991463, 0.010689018294215202, 0.011127794161438942, 0.011566570028662682, 0.012005345895886421, 0.01244412176311016, 0.0128828976303339, 0.013321674428880215]}, "parameters/action_net.bias": {"_type": "histogram", "values": [1.0, 0.0, 0.0, 0.0, 0.0, 0.0, 0.0, 0.0, 0.0, 0.0, 0.0, 0.0, 0.0, 0.0, 0.0, 0.0, 0.0, 0.0, 0.0, 0.0, 0.0, 0.0, 0.0, 0.0, 0.0, 0.0, 0.0, 0.0, 0.0, 0.0, 0.0, 0.0, 0.0, 0.0, 0.0, 0.0, 0.0, 0.0, 0.0, 0.0, 0.0, 0.0, 0.0, 0.0, 0.0, 0.0, 0.0, 0.0, 0.0, 0.0, 1.0, 0.0, 0.0, 0.0, 0.0, 0.0, 0.0, 0.0, 0.0, 0.0, 0.0, 0.0, 0.0, 1.0], "bins": [-0.0006915316334925592, -0.0006730504683218896, -0.0006545692449435592, -0.0006360880797728896, -0.0006176069146022201, -0.0005991256912238896, -0.00058064452605322, -0.0005621633026748896, -0.00054368213750422, -0.0005252009723335505, -0.00050671974895522, -0.00048823858378455043, -0.0004697573895100504, -0.0004512761952355504, -0.00043279503006488085, -0.00041431383579038084, -0.0003958326415158808, -0.0003773514472413808, -0.0003588702529668808, -0.00034038908779621124, -0.00032190789352171123, -0.0003034266992472112, -0.00028494553407654166, -0.00026646433980204165, -0.00024798314552754164, -0.00022950195125304163, -0.00021102077153045684, -0.00019253959180787206, -0.00017405839753337204, -0.00015557720325887203, -0.00013709602353628725, -0.00011861484381370246, -0.00010013359133154154, -8.165240433299914e-05, -6.317121733445674e-05, -4.4690030335914344e-05, -2.6208843337371945e-05, -7.727656338829547e-06, 1.0753530659712851e-05, 2.9234710382297635e-05, 4.771590465679765e-05, 6.619709165534005e-05, 8.467827865388244e-05, 0.00010315946565242484, 0.00012164065265096724, 0.00014012184692546725, 0.00015860302664805204, 0.00017708420637063682, 0.00019556540064513683, 0.00021404659491963685, 0.00023252777464222163, 0.0002510089543648064, 0.0002694901486393064, 0.00028797134291380644, 0.000306452508084476, 0.000324933702358976, 0.000343414896633476, 0.00036189609090797603, 0.00038037728518247604, 0.0003988584503531456, 0.0004173396446276456, 0.0004358208389021456, 0.0004543020040728152, 0.0004727831983473152, 0.0004912643926218152]}, "parameters/value_net.weight": {"_type": "histogram", "values": [1.0, 0.0, 0.0, 0.0, 0.0, 0.0, 0.0, 0.0, 0.0, 0.0, 0.0, 0.0, 0.0, 0.0, 2.0, 1.0, 2.0, 0.0, 0.0, 1.0, 1.0, 1.0, 0.0, 1.0, 0.0, 1.0, 0.0, 3.0, 4.0, 0.0, 1.0, 1.0, 3.0, 0.0, 0.0, 1.0, 0.0, 1.0, 2.0, 0.0, 1.0, 2.0, 3.0, 3.0, 3.0, 0.0, 1.0, 5.0, 4.0, 2.0, 0.0, 3.0, 1.0, 2.0, 2.0, 0.0, 0.0, 0.0, 1.0, 1.0, 0.0, 1.0, 0.0, 2.0], "bins": [-0.3650323450565338, -0.3546864092350006, -0.3443405032157898, -0.3339945673942566, -0.3236486315727234, -0.3133027255535126, -0.30295678973197937, -0.29261088371276855, -0.28226494789123535, -0.27191901206970215, -0.26157310605049133, -0.25122717022895813, -0.24088124930858612, -0.2305353283882141, -0.2201893925666809, -0.2098434716463089, -0.1994975507259369, -0.18915162980556488, -0.17880570888519287, -0.16845977306365967, -0.15811385214328766, -0.14776793122291565, -0.13742199540138245, -0.12707607448101044, -0.11673015356063843, -0.10638423264026642, -0.09603830426931381, -0.0856923758983612, -0.0753464549779892, -0.06500053405761719, -0.05465460568666458, -0.044308677315711975, -0.03396272659301758, -0.02361680194735527, -0.013270877301692963, -0.002924952656030655, 0.007420971989631653, 0.01776689663529396, 0.02811282128095627, 0.038458749651908875, 0.048804670572280884, 0.05915059521794319, 0.0694965198636055, 0.0798424482345581, 0.09018836915493011, 0.10053429007530212, 0.11088021844625473, 0.12122614681720734, 0.13157206773757935, 0.14191798865795135, 0.15226390957832336, 0.16260984539985657, 0.17295576632022858, 0.18330168724060059, 0.1936476230621338, 0.2039935439825058, 0.2143394649028778, 0.22468538582324982, 0.23503130674362183, 0.24537724256515503, 0.25572317838668823, 0.26606908440589905, 0.27641502022743225, 0.28676092624664307, 0.29710686206817627]}, "parameters/value_net.bias": {"_type": "histogram", "values": [0.0, 0.0, 0.0, 0.0, 0.0, 0.0, 0.0, 0.0, 0.0, 0.0, 0.0, 0.0, 0.0, 0.0, 0.0, 0.0, 0.0, 0.0, 0.0, 0.0, 0.0, 0.0, 0.0, 0.0, 0.0, 0.0, 0.0, 0.0, 0.0, 0.0, 0.0, 1.0, 0.0, 0.0, 0.0, 0.0, 0.0, 0.0, 0.0, 0.0, 0.0, 0.0, 0.0, 0.0, 0.0, 0.0, 0.0, 0.0, 0.0, 0.0, 0.0, 0.0, 0.0, 0.0, 0.0, 0.0, 0.0, 0.0, 0.0, 0.0, 0.0, 0.0, 0.0, 0.0], "bins": [-0.02589552290737629, -0.02589552290737629, -0.02589552290737629, -0.02589552290737629, -0.02589552290737629, -0.02589552290737629, -0.02589552290737629, -0.02589552290737629, -0.02589552290737629, -0.02589552290737629, -0.02589552290737629, -0.02589552290737629, -0.02589552290737629, -0.02589552290737629, -0.02589552290737629, -0.02589552290737629, -0.02589552290737629, -0.02589552290737629, -0.02589552290737629, -0.02589552290737629, -0.02589552290737629, -0.02589552290737629, -0.02589552290737629, -0.02589552290737629, -0.02589552290737629, -0.02589552290737629, -0.02589552290737629, -0.02589552290737629, -0.02589552290737629, -0.02589552290737629, -0.02589552290737629, -0.02589552290737629, -0.02589552290737629, -0.02589552290737629, -0.02589552290737629, -0.02589552290737629, -0.02589552290737629, -0.02589552290737629, -0.02589552290737629, -0.02589552290737629, -0.02589552290737629, -0.02589552290737629, -0.02589552290737629, -0.02589552290737629, -0.02589552290737629, -0.02589552290737629, -0.02589552290737629, -0.02589552290737629, -0.02589552290737629, -0.02589552290737629, -0.02589552290737629, -0.02589552290737629, -0.02589552290737629, -0.02589552290737629, -0.02589552290737629, -0.02589552290737629, -0.02589552290737629, -0.02589552290737629, -0.02589552290737629, -0.02589552290737629, -0.02589552290737629, -0.02589552290737629, -0.02589552290737629, -0.02589552290737629, -0.02589552290737629]}, "global_step": 24576, "rollout/ep_len_mean": 87.41000366210938, "rollout/ep_rew_mean": -268.7934875488281, "time/fps": 26.0, "train/entropy_loss": -4.26094913482666, "train/value_loss": 4448.46044921875, "train/std": 1.0018759965896606, "train/policy_gradient_loss": -0.0022994312457740307, "train/loss": 1937.3460693359375, "train/learning_rate": 9.999999747378752e-06, "train/clip_range": 0.20000000298023224, "train/explained_variance": 0.0002124309539794922, "train/clip_fraction": 0.0006469726795330644, "train/approx_kl": 0.0008602659218013287, "_wandb": {"runtime": 1231}}